'use strict';
/* Trained advisor network — generated by dev/train.js (behavior cloning
 * of the teacher policy over headless self-play games). Do not edit. */
const AI_WEIGHTS = {"sizes":[61,48,22],"layers":[{"W":[3.00586,0.60867,2.07071,3.71447,-0.25685,-0.51606,2.08048,0.92417,-1.21716,2.09121,2.43416,-0.97001,-0.07949,2.31546,-0.513,-2.38215,0.20102,3.61542,-0.1483,-1.31269,0.06104,-0.71914,-0.21462,0.67586,4.46918,1.06635,0.29216,3.11644,-0.97167,-3.065,0.82122,-0.05371,0.36329,0.58809,0.33286,-0.37215,-1.27581,3.51078,0.82075,-2.41939,-3.52721,0.65501,-1.48879,1.34332,-1.07355,2.17237,0.37571,2.01039,0.05211,-0.13422,0.27201,0.44217,-0.06076,-0.17159,0.0065,0.26788,0.05237,-0.14527,0.23583,0.06747,0.00333,-0.18436,-0.05234,-0.28116,-0.10966,0.0122,-0.24205,-0.23636,0.07553,-0.59978,-0.22642,-0.21153,0.06087,0.05681,0.22285,-0.17354,0.47594,-0.48823,0.14074,-0.21868,-0.11464,-0.12647,0.0493,-0.14619,0.0915,0.26879,-0.41859,0.08398,0.02549,-0.14425,-0.09524,-0.00067,-0.16647,-0.07386,-0.0671,0.18364,-0.11253,0.09349,-0.08507,-0.5028,0.02199,-0.15266,-0.01569,0.11112,0.28721,0.13607,-0.12525,0.1767,0.06483,0.1147,-0.10736,-0.04333,-0.17927,0.0407,-0.04403,0.20459,-0.07341,0.05165,0.18542,-0.12765,-0.12436,0.14059,0.10049,-0.27942,0.20355,0.07157,0.00842,0.01059,0.0276,0.20976,-0.08243,0.12121,0.11777,-0.06173,0.0351,0.15657,-0.29768,-0.21924,-0.11068,-0.0924,-0.15843,-0.03617,-0.12691,0.10463,-0.6051,0.62828,0.90008,-7.43501,0.10944,0.70174,-0.03858,0.23076,1.30128,0.59035,0.85636,1.99224,-1.05788,-0.2076,0.57842,-1.74003,-0.58539,0.72148,-0.1928,-0.21274,-0.98166,-1.81001,0.84681,-0.86601,-1.50826,-0.18962,0.10222,-7.48509,-0.59953,0.97987,0.28535,0.04674,0.38296,1.09111,1.41892,-0.18755,-0.27951,-2.21855,0.21319,0.22085,2.60939,-3.57942,0.21252,0.30006,0.01846,0.69261,-0.84432,-0.29688,0.12354,-0.10135,-0.34489,2.81422,0.28154,0.20238,0.09579,-0.08311,0.15704,1.53448,-0.14894,-0.19569,-0.16615,0.79932,-0.06572,-0.06782,0.43052,0.66415,0.17289,0.13943,0.23598,0.60962,0.18698,0.15434,-0.25708,0.22185,-0.03055,2.17748,0.98449,-0.17696,0.28711,0.08072,0.40169,0.01195,0.4697,-0.34529,-0.16022,-0.89678,1.44451,-0.04414,-0.13569,1.15867,0.01561,0.2359,-0.23933,0.39968,-0.29095,0.00409,0.60914,0.1461,-0.47721,0.74491,0.31547,0.08305,0.00999,-0.16783,-0.26893,0.30064,0.11706,-0.00701,0.29983,-0.11952,-0.07256,-0.64009,0.08296,-0.01559,-0.00484,-0.08558,0.38482,0.37203,0.15189,0.10447,-0.52912,0.0896,0.11611,-0.04054,0.34308,-0.01248,-0.01652,0.1112,0.17487,-0.16043,0.24916,-0.23276,-0.17597,-0.31492,1.18313,-0.15428,-0.99592,-0.13984,0.18147,0.04783,-0.06962,0.1726,0.21303,0.03116,0.15625,0.132,0.09491,-0.00696,0.12871,-0.00543,-0.13894,0.13749,0.05885,0.0718,-0.14863,0.16404,-0.02672,0.02543,-0.00493,-0.10878,-0.01182,0.0814,0.04761,-0.10205,0.07706,-0.10634,-0.02348,-0.13654,0.00188,-0.15001,-0.16521,-0.06468,-0.11292,-0.1785,-0.01131,0.10065,0.02729,-0.08481,0.14802,-0.04813,0.06919,-0.02242,0.1639,0.09488,0.17953,0.06453,-0.02262,-0.09752,0.08317,-0.16478,-0.13292,-0.15845,-0.17415,-0.02486,-0.04874,-0.13361,-0.05126,0.16096,-0.11327,0.01366,0.03524,-0.07534,-0.05832,0.06454,0.04235,-0.00478,-0.12432,-0.04189,-0.04465,0.06284,0.04339,0.06756,-0.18057,0.04409,-0.0556,0.15494,0.10546,-0.06302,-0.13194,0.01347,-0.00481,0.17999,0.0945,0.16829,0.10246,0.01088,0.03413,0.15128,0.09419,0.12168,0.17915,0.14132,0.09963,0.13446,-0.02525,-0.05614,-0.01523,-0.06619,0.15216,-0.0395,-0.01637,0.03911,-0.00098,0.11081,0.14105,0.12388,-0.15576,-0.00639,0.08349,-0.1337,-0.12814,-0.09012,-0.06977,0.09309,-0.01009,0.15035,0.16687,0.04706,0.09121,0.13777,-0.06914,0.07148,-0.0573,0.00095,0.13848,-0.01794,-0.09566,-0.17743,-0.01279,-0.02264,0.10487,-0.06507,-0.01107,0.17302,0.06089,-0.07126,-0.12729,-0.11035,-0.0569,0.02095,-0.12056,0.02914,0.15393,-0.01794,-0.03412,-0.04803,0.06568,-0.07397,-2.04464,1.53901,-1.50314,-3.70101,2.43715,-0.24196,0.87728,-1.26085,-2.42503,2.89418,-2.90107,0.88947,2.83512,-5.83593,0.7042,6.77782,0.78977,-3.48995,-1.18244,-0.94131,-1.86509,-7.72636,-0.46612,4.10295,8.41541,0.68529,0.62235,3.06979,-3.8307,-0.60569,1.56692,0.08205,0.56967,1.39083,-3.11206,0.71595,-4.57402,-0.94601,4.07069,-2.52137,-1.23873,-4.45574,-2.84904,1.49929,0.00955,-2.03653,-0.79175,-0.11524,-0.12242,0.02876,-0.63378,0.21098,0.57853,-0.25708,0.10301,-0.26065,-0.32069,-0.40645,-0.429,-0.56987,1.0136,-2.1032,-0.09335,1.51874,1.00743,-1.88525,-0.11162,0.21493,0.14532,-1.79942,-1.80024,0.50645,1.8514,0.00234,0.00248,5.01182,1.45314,-0.00682,-0.28659,0.00256,-0.50692,-0.5991,-1.0968,0.01172,-0.62967,-0.26925,3.73658,-0.21015,1.33556,2.17036,-0.54012,-0.2192,0.09028,-0.16632,0.34454,-0.06719,0.12421,0.36781,0.22054,-1.1967,-0.04989,0.01796,-0.26809,0.14422,0.2991,0.60134,0.11301,0.2874,0.1608,0.11687,0.00013,0.02726,-0.10663,-0.51254,0.23078,0.09076,-0.35717,0.08368,0.26144,-0.16217,-0.73043,-0.00542,-0.09223,-0.79307,-0.55346,0.47734,-0.14467,0.11688,0.2888,0.51669,0.08165,0.19916,0.14974,-0.42846,-0.46296,0.01076,-0.55404,-0.65788,-0.05537,0.10135,-0.27437,-0.14748,-0.29907,0.02823,1.20117,0.23887,-5.41021,-14.04599,-1.73929,-1.10818,-0.742,-0.54129,1.48604,12.6813,3.89938,-1.28174,-2.02585,-5.11392,0.22843,-3.77548,-1.62637,-0.47639,-3.44599,0.37479,-1.8196,-8.21894,-5.07503,-1.43164,-2.25506,0.58424,0.8453,2.5342,0.78192,1.68758,-0.09989,0.34468,-2.04113,-9.47081,0.03884,0.59855,-1.56335,-5.23337,8.15199,1.69034,11.6435,2.29026,2.08271,1.19777,0.89374,0.07183,1.21041,-0.97419,0.7329,0.55721,-0.84937,0.89959,0.5879,0.29578,0.09852,1.17371,2.20697,5.04421,0.03478,1.42212,-0.28681,2.44628,0.2139,1.90968,0.13963,0.75377,0.5871,-0.52488,-0.72739,2.99555,0.36309,0.75331,-3.85855,0.09262,-0.1319,2.81728,-2.40935,0.89369,-0.12369,-0.09982,1.93949,0.23938,0.71649,-0.34245,-1.17457,-0.93245,2.54562,-0.62993,0.82735,-2.26897,0.35003,0.70065,-0.53058,2.64493,-0.84767,0.5498,1.48484,0.29004,-1.11213,2.93813,0.50589,-0.12739,0.05362,0.09154,-0.18012,-1.00456,0.22989,0.09344,0.5284,0.73583,-0.35929,-0.64816,0.5217,0.69911,0.02124,-0.0839,-0.117,-0.19739,1.3176,0.06421,-2.04721,0.14616,-0.01446,-1.21206,0.04635,-0.36195,-0.20356,0.2542,0.06166,-1.94165,-0.30444,-0.10058,-0.95154,0.40951,1.13606,-0.14362,-1.39121,-1.43762,0.09691,0.38298,-0.481,-0.07736,0.47696,0.01653,-0.01811,-0.20936,0.01008,-0.27268,-0.07563,-0.07407,0.00365,0.26158,0.26969,0.14916,0.00191,-0.13066,-0.13328,0.07203,0.09051,-0.17556,0.13494,-0.21133,-0.1625,0.12698,-0.07841,0.05706,-0.16475,0.08091,0.17578,0.13909,-0.1051,-0.16963,-0.02172,0.00273,0.15169,-0.21078,0.18895,-0.07248,-0.1197,-0.0282,-0.08017,0.24311,-0.05357,-0.02017,0.11936,-0.05323,0.01707,0.11519,0.0173,-0.04029,-0.15072,-0.15033,0.04365,-0.14187,-0.09701,0.08857,0.05793,-0.0639,-0.15764,-0.07542,-0.06057,-0.15263,-0.16867,0.00209,-0.01542,0.03163,-0.14572,0.05238,0.11288,0.03924,-0.0026,0.02101,-0.04854,0.02931,-0.16904,0.15249,-0.04506,0.16353,0.16791,0.05008,-0.05043,0.12184,-0.09172,0.00001,0.04518,-0.06442,0.10799,-0.17895,0.1149,-0.12912,-0.02314,0.07334,-0.05687,0.12868,-0.13201,-0.04416,0.03291,-0.12399,-0.08958,-0.05942,-0.06796,0.11428,-0.12558,-0.17367,-0.0271,0.14478,0.09485,0.0543,-0.00907,0.09741,0.17018,-0.06397,0.13861,-0.09903,0.129,-0.1396,-0.00145,0.04409,0.17163,0.16806,-0.03371,0.07595,-0.10367,-0.00914,-0.13466,0.0004,-0.09983,0.11758,0.01191,0.08517,0.09383,0.07894,0.10528,-0.14779,0.02682,0.07182,-0.1225,-0.08585,-0.14702,-0.0281,0.03155,0.17843,-0.12482,0.16235,-0.09641,0.09476,0.09094,0.13494,-0.04857,0.23442,1.97248,8.85819,-1.01509,-0.46995,2.63814,0.09732,-0.06506,-2.6708,0.46494,1.356,0.97333,-3.46382,0.08502,-0.62747,1.67783,-3.15728,-2.30301,-0.80461,-0.20297,-5.8645,0.29238,0.84518,4.26498,1.1051,1.53984,2.96956,12.83514,-3.59924,1.27848,-1.76995,0.41756,-0.68966,-1.14677,-1.26328,-1.22205,-0.15928,-3.32315,-0.60965,0.0608,-1.65976,-0.43815,0.37549,-0.94671,-0.01187,-1.53373,2.30835,-0.29421,1.4588,6.6218,-5.07654,4.53168,4.21787,0.43284,0.30211,4.84169,-6.6929,1.32273,1.53756,-7.37463,8.81898,2.56754,-2.83072,5.20243,5.85576,-1.44473,-0.33796,-6.08151,-4.81332,12.90166,4.12113,-15.49676,0.66987,0.61478,1.80405,3.69506,-0.86542,2.76337,-1.03535,3.14265,9.96602,5.79491,-2.58442,-3.90939,-13.99886,13.1806,-4.36414,-0.90288,-6.23399,-3.9455,1.11053,-2.90894,6.35965,-2.89784,1.21004,0.20204,0.24011,-0.0173,-0.38178,0.31098,-0.28787,0.17405,-0.04889,0.42029,-0.35631,-0.10696,-0.06934,-0.37327,0.02952,0.00686,-0.21678,0.21193,0.30949,-0.07076,0.04682,0.15939,0.09628,-0.33637,0.17322,1.17659,-0.03317,0.07511,0.43967,-0.07486,-0.01002,0.13918,-0.10339,-0.03633,0.54396,0.06164,-0.20017,-0.23776,0.36851,-0.49783,-0.04822,0.16597,-0.16468,-0.20218,0.12561,-0.02356,0.08257,-0.09272,0.11181,0.01943,0.12401,-0.09505,0.1027,0.13229,-0.05069,-0.1241,0.00912,0.17001,-0.08017,-0.17954,0.17955,0.05459,-0.04072,0.07062,0.17629,-0.06453,0.00056,0.1346,-0.11482,0.01408,-0.06269,-0.135,-0.15164,-0.16881,0.09438,0.07432,0.15235,0.17513,-0.02386,-0.10831,-0.13722,0.09088,0.01807,-0.00191,-0.10132,-0.12312,0.01554,0.0417,-0.02166,-0.13423,-0.03174,0.09427,0.13319,0.15373,-0.17051,0.11987,0.1309,-1.91356,1.292,2.18782,-1.9399,1.94987,1.63991,0.92726,-0.7569,0.57917,-1.70369,0.86787,3.03782,-1.06904,1.2338,0.81435,0.014,4.8624,-2.94573,-1.90616,-0.7903,-1.07029,-5.40588,1.25447,3.7007,-0.93882,0.76109,0.87537,-4.13448,3.5601,-1.72874,2.17686,-1.40458,1.56566,2.49619,0.02751,-0.56294,-1.96727,-3.77837,0.85867,-1.94147,0.26859,-7.56401,-1.18335,0.1362,-1.20417,1.00963,-1.44315,1.22274,2.19641,1.4508,2.05984,-1.06541,1.75825,-0.35652,1.94045,1.64058,1.79689,1.69593,2.16238,1.71872,-1.43453,1.90936,0.94544,-2.92308,0.30848,4.26745,-1.18221,-1.02764,-1.56128,-3.25666,0.67201,1.18141,0.61721,0.69411,0.83243,-2.92961,-1.0149,-1.46774,0.73585,-1.09567,1.14507,2.79181,1.42457,-0.7396,-0.91809,-0.76192,-2.64429,-1.46619,-0.79747,-4.34335,-0.87159,1.0701,-0.99052,1.45473,-1.0466,1.26915,2.42749,1.78547,2.92716,-1.05962,3.08354,1.92498,1.83553,1.56025,2.29158,0.67356,3.10648,2.24031,-2.07814,3.0663,1.57405,-1.21869,2.6149,5.46013,-1.49977,-1.38188,-3.00571,-5.35311,2.23643,3.70501,-2.70505,0.98508,0.98866,-4.32451,-3.28589,-2.01132,1.56374,-1.31661,1.52115,8.79877,0.99448,-0.99077,-1.97267,-0.87805,-0.32871,-3.03873,-1.42746,-6.58952,-3.97592,1.31706,-0.99647,1.34152,-1.74736,1.90279,0.23291,0.56557,0.35988,0.00974,0.21744,-0.03864,0.0261,0.22968,1.40481,0.72587,0.51896,0.31891,-0.37481,0.25027,0.24937,-1.26853,0.77267,0.73141,-0.45956,-0.21813,-0.13223,-0.48915,0.42365,0.13662,0.37759,0.26441,0.16674,-0.45772,0.44946,0.11722,-0.12532,-0.2203,0.15072,-0.45536,0.73699,-0.2974,-0.19401,-0.05009,0.58454,0.02318,0.65497,-1.01703,-0.09589,0.32833,0.01116,0.46882,-0.28207,0.16685,0.39216,0.38998,0.40205,-0.41234,0.32796,-0.12023,0.15593,0.10573,0.45816,0.10214,0.21803,0.21256,-0.06641,0.02516,0.20801,-0.48388,-0.16292,0.68659,-0.16863,-0.06856,-0.23427,-0.43268,0.22218,0.68347,-0.14063,-0.01977,0.09071,-0.47835,-0.33525,-0.12614,0.21015,-0.19047,0.25196,0.28197,0.40402,0.0016,0.23692,-0.29609,0.0445,-0.85174,-0.07221,-0.60817,0.00642,0.07728,-0.00419,0.38209,-0.20315,0.16562,0.98319,0.99248,1.12813,-0.04777,0.40084,-0.07882,0.64987,0.3554,1.76829,1.76394,1.27486,1.61462,-1.42745,1.36064,0.6545,-2.45275,0.21974,2.62848,-1.19571,-0.86339,-2.46289,-1.70008,0.06436,1.00421,-0.01578,0.58997,0.93435,-3.04419,-0.65947,-0.95603,0.93741,-0.46547,0.76257,-0.18812,0.73357,-0.43084,-1.58548,-0.43571,0.97171,-0.3006,0.75972,-2.74766,-0.3537,0.78598,0.01815,1.13233,-0.78139,-0.13598,0.76932,1.27548,1.70046,-7.60538,0.8949,0.54009,0.1158,1.07568,2.83614,1.74987,1.18975,1.53153,-2.92287,4.13908,1.40159,-3.89197,0.35801,4.8112,-0.623,-0.30249,-1.21645,-0.56927,1.18418,-0.70476,-2.5918,0.17017,0.44228,-3.82464,-2.60775,0.63748,0.47616,0.09277,1.73392,1.04138,1.29527,-0.16983,-0.04256,-3.20661,1.23689,-0.53586,2.61475,-1.57274,0.40222,0.64504,-0.71343,2.66357,-0.6453,-0.05171,-0.38769,0.3982,1.46176,-2.73433,1.14175,0.59049,0.042,0.18851,1.38715,1.79274,0.26614,0.77925,-1.04032,1.47054,0.37828,-3.45816,0.10548,0.61999,-0.06114,0.05678,-0.37325,-0.25737,1.63853,-0.24566,-3.88103,-0.17867,-0.20736,-3.9906,-1.39918,0.00595,-0.1757,0.41261,0.08025,-0.81778,3.30794,-0.00995,-0.48004,-2.21408,4.99296,0.60122,-0.87531,-2.14426,-0.33884,0.58298,-0.49298,-0.08604,-0.01846,-0.50824,0.68151,0.13778,-0.35467,0.8909,0.40155,-0.17216,0.02892,-0.14118,0.32017,0.07566,0.25547,0.14449,-0.38526,0.20927,0.16532,-0.06224,0.1439,0.01318,-0.19289,-0.26518,0.03497,0.04384,0.30598,0.04803,-0.4912,0.22317,-0.08252,-0.16548,0.15677,0.01823,-0.03185,-0.02417,-0.09395,-0.46442,0.39079,0.07674,-0.29596,-0.07622,0.85228,0.40592,-0.03452,-0.70765,-0.00827,-0.02779,-0.17639,-0.03598,0.19156,-0.28852,0.04249,0.24251,0.06616,-0.36829,0.09773,-0.15294,0.06277,0.16376,0.17581,-0.03849,0.13385,0.13828,0.033,0.04968,-0.07103,-0.01133,0.09927,0.29274,0.01818,-0.14557,-0.23197,0.24169,-0.2016,0.01781,0.34439,-0.15082,-0.1409,0.7783,-0.15451,0.27897,0.07848,-0.00583,0.15582,0.18349,-0.20521,0.06255,-0.12707,0.0508,0.01092,0.10328,-0.1286,-0.00269,-0.08348,0.07113,-0.10157,-0.12797,-0.18313,-0.1357,0.15483,0.60909,0.70046,-2.71895,0.6043,0.56436,0.05446,0.58431,0.97268,1.11902,-0.29505,1.2264,-1.07617,2.40845,0.41279,-1.45892,-0.42993,1.31829,0.52858,0.11733,-0.45863,1.30163,1.70304,-0.12409,-2.88676,-0.0474,-0.10318,-4.20365,-2.70328,0.78062,0.11045,0.14626,1.2445,1.21327,2.21469,-0.12072,-0.06753,-2.23935,1.06423,-0.21441,-0.98218,-2.22744,-0.09642,0.39024,-0.10292,1.12349,-0.72758,-0.24096,1.26011,0.94104,0.98105,-4.46279,0.87214,0.42403,0.07917,1.31078,0.79851,0.86063,-0.23473,0.22898,-2.06716,2.51096,0.84304,-1.58984,-0.88253,5.942,0.63736,-0.64383,-0.88725,0.07095,0.52509,0.54295,-3.46266,0.02394,0.12325,-3.49766,-2.71098,0.6686,0.22674,0.30152,0.81191,0.90821,2.14479,0.13257,-0.4218,-0.75392,-1.23452,-0.45846,-0.71176,-1.82713,-0.45204,0.27765,-0.41054,1.08932,0.03409,-0.06072,0.12975,-0.01473,0.23913,-0.38788,0.03435,-0.1124,-0.07299,0.05574,0.22095,-0.07096,0.14157,-0.00204,0.05774,-0.03899,0.09041,-0.04998,-0.04979,-0.2276,-0.0308,-0.02371,0.03558,-0.10886,0.17935,0.02954,-0.0932,-0.06705,0.18467,-0.44275,-0.16651,0.10484,0.07588,-0.06235,-0.01307,0.02165,0.09929,-0.02375,0.12544,-0.06761,-0.2691,0.05164,-0.37733,-0.0292,0.19316,-0.16512,-0.03795,0.02732,0.10821,-0.17057,0.11487,-0.09221,-0.04176,0.05054,0.2787,0.09178,0.06579,-0.00335,0.25473,-0.38585,-0.0078,0.00138,0.09864,0.04921,0.01602,-0.24347,0.21658,-0.12276,0.03088,0.01429,-0.19162,0.15314,-0.07129,0.00225,0.14667,0.02421,-0.10358,0.16353,0.23345,-0.10597,-0.05214,0.02368,-0.13453,-0.02543,-0.09867,0.14325,0.08572,-0.05077,0.58527,0.03057,0.28863,-0.00625,-0.22919,0.12071,-0.01735,0.15355,0.07652,0.02221,0.03279,0.13088,0.05007,0.06275,0.033,-0.01764,0.09235,-0.09529,0.03936,0.05092,-0.10729,0.01524,-0.15885,0.13692,-0.11228,-0.04439,0.13562,0.17564,0.09164,-0.02078,0.036,-0.00537,0.00058,0.17249,0.16616,0.06081,-0.00371,-0.0186,0.17474,-0.15607,-0.07625,0.10486,-0.02068,-0.10058,0.14707,-0.12672,-0.00755,-0.05153,-0.11418,-0.04989,0.09269,-0.02441,-0.10331,0.10169,-0.1564,0.134,0.13169,-0.12016,0.17063,0.12692,0.00517,-0.17922,-0.06604,-0.16501,-0.12415,-0.12038,-0.07549,0.07248,0.00476,-0.08002,-0.04246,0.14475,-0.12662,-0.07074,-0.14628,0.07497,-0.08382,-0.03531,0.02174,0.15362,-0.08897,-0.02913,0.06042,-0.10679,-0.1613,0.0767,0.09569,0.0459,0.10383,-0.03253,0.07911,0.07947,-0.13896,-0.02866,-0.01986,0.15182,-0.05422,0.0178,-0.02462,-0.00876,0.02246,-0.16361,0.13287,-0.10152,0.12536,0.04914,0.13368,0.0064,-0.15631,-0.09895,-0.05148,0.16124,0.02981,0.04881,0.09889,0.10585,0.04051,0.17429,-0.02326,-0.00814,-0.05914,-0.12472,0.03415,-0.11548,-0.01738,-0.16975,0.09437,0.14417,0.0838,0.1401,-0.12692,-0.11574,-0.00979,-0.11146,0.05517,0.08023,-0.04908,0.01629,-0.13815,0.03708,0.13997,-0.10117,-0.05281,0.07733,0.07587,-0.17644,0.07252,0.12662,-0.12465,-0.02006,-0.11343,0.02221,-0.06517,-0.07739,-0.19289,0.34831,-0.49827,0.08698,0.15488,0.02031,0.06874,-0.18469,0.48995,0.61677,-0.02719,0.22582,-0.13856,0.22301,0.14364,0.22071,0.09527,0.09111,-0.25709,-0.12064,-0.28068,0.21667,0.27105,0.07668,-0.12023,0.1262,-0.0347,-0.38538,-1.00514,0.24959,-0.08988,0.19519,0.24649,0.34939,0.11818,0.0347,-0.01513,-0.31305,0.36333,0.23439,0.11761,-0.2794,0.04618,0.25508,-0.00228,0.1027,-0.12786,-0.06727,0.13419,-0.11258,0.21038,-0.21457,0.0052,0.03172,-0.07582,-0.03157,-0.10403,-0.209,0.11202,0.22996,0.06473,0.02725,0.16451,-0.02725,-0.12493,-0.12395,-0.11402,0.12511,0.17733,-0.04121,0.01964,0.09724,0.15032,-0.01013,0.11073,-0.0032,-0.1919,-0.06816,0.0042,-0.06306,-0.11327,0.19663,-0.03351,0.16834,0.21953,-0.02913,0.10693,0.01053,-0.0359,-0.07962,-0.17512,-0.08939,0.03529,0.02763,0.03525,-0.00775,0.56665,0.50932,0.58285,-3.14761,0.28459,0.08249,-0.22737,0.0792,0.51096,0.39709,0.36486,0.97829,-0.54844,2.30982,0.07316,-1.16869,0.36629,0.7094,-0.17519,0.09324,-0.68357,0.10962,0.84736,-0.19056,0.29295,0.08616,0.06194,-1.02346,-1.93324,0.13759,0.15666,-0.07533,0.56195,0.67783,1.03033,-0.29329,-0.38278,-2.04569,0.26793,-0.29757,-0.72071,-0.75354,-0.06598,0.06873,0.17883,0.88101,-0.39612,-0.01658,0.36377,0.06442,0.71328,0.90973,-4.10045,0.5257,0.89007,1.89392,-0.25092,0.16599,-0.0033,0.16644,1.79354,0.06401,0.46242,-0.65833,1.58022,0.80708,0.3434,0.04667,0.65121,0.32132,1.31956,-2.61401,-0.94201,0.67532,0.03101,-0.14371,2.01561,-0.50121,-2.59605,-0.40283,0.71064,-0.26355,1.35792,-0.46729,0.28781,-0.60643,-3.65614,0.57036,-0.62656,-0.94975,1.90823,0.63533,-0.61413,0.61224,-0.85693,-0.05274,0.46166,0.2215,1.11461,0.46505,-2.68771,0.23808,1.37854,1.19402,-0.26837,1.45134,-0.22586,0.84539,0.9745,-1.2511,-0.26189,-2.37132,0.14486,0.97628,-0.0807,-1.00834,-0.65367,0.1506,0.19463,-3.67229,0.82742,0.5492,0.71985,-0.66234,3.66152,-0.9918,-0.4733,-0.39659,0.31281,0.08434,1.35518,-0.59818,-0.6165,-0.79832,-2.87013,2.51526,-2.00963,1.90851,0.39486,0.33947,-0.31557,0.4279,-0.17863,-0.23702,3.1351,2.04557,3.88062,-0.65621,-0.30771,-0.089,3.06995,2.99815,2.56849,4.6503,3.12079,2.93645,-1.11845,1.83263,1.46427,-5.88831,0.49509,7.28618,-2.08655,-1.77597,-1.70456,-5.36243,1.2377,-0.08813,0.24646,1.39754,1.40601,-5.16843,0.85286,-3.11339,1.34419,-1.5569,2.05425,1.62048,2.84904,-1.406,-0.84294,-1.99032,-4.79082,-1.39088,-1.31465,-5.32935,-0.67084,1.83653,-1.82061,2.44206,-2.00205,2.4912,0.10311,-0.09785,-0.46351,0.38347,0.57974,0.03734,0.09055,-0.13424,-0.04053,-1.2191,-0.20976,-0.80245,1.04181,-0.02558,0.05649,0.0223,0.38588,-1.56117,-0.06406,-0.06817,0.65385,0.18591,-0.20468,0.74309,0.48613,0.18249,0.22698,0.67034,0.84732,-0.90069,0.0139,-0.01631,0.30449,-0.40417,0.14121,-0.13499,0.14844,-0.53355,-0.22067,-0.07265,-0.05159,0.00117,-0.40027,-0.0237,0.00546,0.03234,-0.22858,0.02045,-0.79241,-0.01799,-5.13616,-24.36066,-1.05695,-0.70261,-1.4084,-1.79351,1.64087,14.39919,3.4369,-1.48472,-3.63493,-13.12842,0.43027,-3.99679,-2.30144,1.81594,-1.91227,1.25505,0.88467,-7.67373,-5.90256,-1.10168,-1.13529,-0.10751,0.84418,-7.19088,0.82414,2.88361,-1.06589,1.16603,-0.88704,-10.83515,-1.5527,0.43322,0.88728,-3.0075,5.63569,3.3202,16.96605,2.98996,3.51167,0.57489,2.34069,-1.58271,1.85067,-0.71483,-0.09279,0.04075,-0.03193,0.30694,-0.5577,-0.01939,1.31286,0.53696,-5.95592,4.42815,0.00892,0.30001,1.96036,-1.1997,-0.08734,-0.16143,-0.06113,0.78804,0.76686,0.20899,-0.06246,-2.15148,-1.15332,2.15032,-0.32093,0.04309,-0.20269,-0.35504,-1.55582,-0.28417,2.32116,-0.01047,0.85205,-2.13308,0.0345,-0.20747,-0.10459,-1.51832,-0.21943,0.03875,-5.69874,0.02044,-0.40321,0.22315,-0.08206,-0.15149,-0.16487,1.25114,0.54648,0.34356,1.05259,0.56358,-1.64621,0.34063,1.99842,1.18296,-0.44166,2.13846,-0.16176,0.6304,0.84328,-1.10192,-0.42861,-2.39547,-0.49691,0.18687,-0.06437,-0.94859,-1.06503,0.35791,-0.09592,-6.3373,1.26916,0.18481,0.67096,-0.1947,1.90284,-1.2583,-0.33772,-0.33759,0.69155,0.36756,1.55007,-0.22112,-0.59674,-0.56348,-2.64587,4.94166,-2.26188,2.24754,-1.43387,0.50085,-0.57374,0.92552,-0.65076,0.01585,0.77333,0.31145,0.7107,-1.41882,-0.45331,0.77852,1.29834,2.46686,-1.30584,2.59561,0.37809,0.34945,1.91547,-1.68759,0.54962,-1.58945,-0.92866,4.31713,0.52902,0.4243,8.64558,1.09943,3.36048,-3.67093,-2.15125,0.34472,-0.61352,-0.80381,1.71184,-0.49869,-1.61875,-0.30163,1.7113,0.21059,1.90108,-0.43883,6.81783,-0.22808,-8.0412,-0.32538,-3.28397,-0.5171,1.73023,0.85492,-1.73038,1.11577,-0.93431,4.28015,-0.01858,0.68315,0.16851,0.12215,0.24109,-0.16299,0.73096,0.39609,1.42593,-0.67678,-0.0872,-0.12779,-0.92962,1.07423,0.49167,-0.53557,0.5553,1.00242,-0.1832,-0.15644,-0.19133,0.21301,-0.55914,0.58827,2.71327,-0.03357,-0.31339,-0.79895,1.24643,-0.04782,0.06357,-0.293,0.37962,1.37874,-0.12418,-0.13199,-0.34806,0.73992,-0.92206,0.37178,0.4872,-0.32446,-0.13626,0.23836,0.13596,0.30053,0.16551,0.02872,5.5537,2.88322,2.81853,-22.38994,1.72484,1.75807,-2.31239,6.3812,5.95001,1.86994,3.20001,2.93709,-4.71098,9.84601,2.70849,-10.31128,-4.15163,22.69325,1.79657,-1.13938,-2.20508,2.87299,2.35699,-2.92532,-15.79275,-0.99403,-0.50749,-23.53517,-28.42519,2.62447,-1.47015,1.76098,2.99035,3.41384,9.38187,0.47583,4.04438,-4.47614,-1.38979,0.50666,-1.06766,-7.60101,0.23862,2.89264,-0.38992,4.5992,-0.19658,-1.67947,5.34441,-0.59605,1.9306,22.77499,1.35058,-0.74561,2.3435,0.6502,-1.83771,2.49663,0.13442,-4.50595,0.8693,5.48823,-1.03504,1.62695,4.16404,4.02362,-0.13442,-1.25875,0.7469,1.61734,-1.66376,3.39729,6.72457,1.93199,0.87083,23.85665,4.03506,-6.77437,0.72262,-0.99239,-0.18469,-8.07172,-3.01255,-0.60871,-2.51891,5.67761,1.10093,-4.12697,-2.1479,11.57392,-2.59848,1.16382,-1.90844,1.71258,1.70117,3.06823,0.87521,-0.10355,1.042,11.0275,-1.65023,-0.50659,1.79953,0.23537,-1.41045,3.48687,2.05734,-2.02305,0.92832,0.95633,-0.4607,0.66791,0.7029,3.48972,-0.47593,-0.69951,0.9434,1.71442,-0.78924,-0.65734,1.45515,0.59804,0.06156,3.04542,1.71992,-3.95948,-0.447,0.81812,0.15546,0.85908,-0.37069,-0.40162,-0.72159,1.04911,-1.96022,-2.34987,0.43749,0.80641,-0.54701,1.1049,-0.90112,0.97088,0.14643,0.58049,1.67176,0.14138,-1.62351,4.15903,0.59103,-0.22713,0.3772,-1.00326,0.22186,-0.41761,0.5987,0.14407,-0.57944,1.00118,0.02128,-0.42414,-0.097,-1.30365,-0.50075,-0.38485,0.83265,-0.63,1.64147,0.05243,-2.39207,0.0559,-0.2745,-2.3934,0.08518,-0.65127,0.0442,0.14278,0.1797,-1.86405,1.11694,-0.32882,-0.28181,-0.39836,2.85677,1.04745,0.03804,-2.3036,0.46122,0.036,-0.49545,0.132,0.94595,-0.34361,-1.65584,-1.08504,-1.57729,3.57173,0.19344,0.06501,-1.08275,-1.45564,0.39231,1.11214,-0.15019,1.12938,2.57434,-0.02648,-0.52364,-1.79359,0.99463,-10.54484,-0.14467,1.37374,1.16749,4.37006,2.5825,-1.5972,-1.18296,0.05417,-0.83632,-1.05002,1.99632,1.47094,-0.10779,-0.13385,1.48363,0.26428,-0.7722,-0.74291,0.75637,-3.02917,7.62611,0.66721,0.132,-0.26118,0.87097,-0.47645,-0.12697,0.63425,-1.84504,-0.4963,-0.09204,-0.03844,0.00167,0.02305,-0.17515,0.16913,0.05805,-0.08828,0.0913,-0.04228,0.02488,0.01002,-0.05963,0.10479,-0.14327,-0.15437,0.03247,-0.07229,-0.07218,-0.08756,-0.11766,-0.16035,0.08163,-0.06331,-0.05712,0.0005,0.07384,-0.06217,0.03596,0.09647,0.05015,0.10419,0.10815,0.16423,-0.00505,0.01473,0.17682,0.03683,-0.0122,0.04388,-0.03298,0.08625,0.12844,0.03371,-0.07612,-0.11476,0.00014,-0.05503,0.27975,-0.01047,0.49613,-1.23297,-0.63811,0.28032,-0.39015,-0.49378,0.07047,1.6039,0.10951,0.78171,0.04981,-0.49162,0.10715,0.32518,-1.21828,0.07934,0.08806,0.15052,0.13009,0.09915,0.71988,-0.3562,-1.38426,-0.5384,0.22014,-2.01695,-0.35411,0.70752,-0.14787,0.13838,0.42629,0.84783,0.61648,-0.06211,0.00615,-0.75225,-1.79427,0.13214,-1.74311,-0.77031,0.4185,-0.17446,-0.42058,-0.15658,-0.10259,-0.00575,-3.4215,0.25013,0.7023,-1.34208,-1.92556,2.08067,0.41349,-0.34756,-0.63762,-4.15702,-0.67338,1.30724,1.2698,0.15066,0.15086,2.51658,6.35889,-6.61323,-0.30455,0.42831,0.6616,-2.16217,1.89249,0.70232,-1.81265,0.43084,0.36513,-1.73307,5.18935,-0.32644,-1.39757,-0.90942,1.03189,1.37969,-0.09498,-0.05116,-1.33161,-3.44203,-0.33987,-0.17677,1.37776,-5.87488,1.44481,-0.53701,-0.68851,0.32746,-1.23101,-0.43462,7.61025,1.06137,2.36318,13.45791,-0.58694,-0.27202,1.14783,1.11006,1.31735,3.01975,5.06158,-2.79589,-2.30375,4.25826,0.65505,-4.60224,-0.34029,5.92259,-0.52372,-0.44293,-0.20749,0.82066,0.22021,-0.29843,0.15925,0.68336,-0.33297,-0.0232,-4.32428,-2.94338,0.8222,0.56274,0.37616,0.06665,1.83374,-0.87667,-0.38881,-0.47696,2.80756,0.25964,-2.84896,5.06127,-1.0458,1.82638,-0.76687,0.86739,1.02093,0.21295,-0.03457,0.24653,-0.00177,-1.34052,-0.16062,-0.10025,-0.16804,-0.10775,-0.00874,-0.39952,-0.27856,0.12371,-0.00547,0.24962,0.12008,-0.11939,-0.1338,-0.14936,0.06877,-0.00628,-0.08013,0.107,0.38412,-0.19827,0.0419,0.1052,0.19102,-0.02374,-0.41958,0.22292,-0.12337,0.10831,0.04816,-0.00872,0.07056,0.1682,0.37552,0.13202,0.00307,-0.3409,-0.49043,0.1523,-0.16841,0.1189,-0.14908,0.14893,-0.05757,0.00852],"b":[3.17081,2.04348,3.96502,-0.54709,-0.33136,-0.02685,2.89235,2.83427,2.43795,4.64435,2.99432,2.95964,-1.21481,1.9972,1.41753,-6.01988,0.48092,7.46129,-1.96779,-1.91311,-1.86445,-5.27315,1.22286,0.06254,0.19122,1.35983,1.58693,-5.07737,0.69836,-3.21945,1.31197,-1.64804,2.06688,1.44219,2.73111,-1.51435,-0.71326,-1.90044,-4.94909,-1.53031,-1.38765,-5.24856,-0.80803,1.90298,-1.82072,2.50011,-2.00394,2.41074]},{"W":[1.68377,0.40564,0.14081,-0.02541,1.28734,1.18996,1.66316,0.02887,0.46287,-1.20676,-0.72317,-0.42359,-0.02537,-0.06131,-0.23104,-0.18627,-0.29769,-0.20758,-0.84868,0.49458,-0.18355,-2.75973,0.94668,0.83827,-0.09949,-0.1069,0.46749,1.71118,-0.13799,0.14079,0.2117,-0.77468,-0.31777,-0.50735,-0.08717,-0.13182,0.13426,-0.23773,-0.13122,-0.16979,0.01241,0.1571,-0.22263,-1.24299,1.2165,-3.07605,0.82905,-0.66403,-1.02699,0.52288,0.35701,1.0625,-0.11349,0.74537,-0.40262,0.19822,-0.05694,0.09236,0.2268,0.01239,0.17618,0.08185,-0.15015,-0.66308,0.41772,0.71969,0.42745,-0.7892,0.75413,-1.38011,-0.53946,-0.41324,-0.43953,0.41943,0.85039,-0.61381,0.65082,1.41071,-0.10823,0.02667,0.61675,-0.11124,-0.17301,-0.00461,-0.07812,-0.80042,-1.25946,2.5476,1.41604,-0.93402,-2.42101,-0.24746,1.36728,-2.64825,-0.33628,0.80414,0.11021,0.51877,0.49864,-0.18905,0.11043,-0.04093,0.23595,-0.04183,-0.12735,0.06502,1.85532,0.39608,-0.0093,-0.52656,-1.54366,0.0818,-0.31169,2.21309,-0.02786,1.51649,0.88581,-0.33242,0.01247,-0.90597,0.50844,0.48617,-0.12581,-0.23833,-0.07667,-0.30506,-0.19247,-0.01609,-0.14718,-0.45929,0.00908,-0.99898,-0.50532,0.44483,0.72608,-0.01869,-0.83276,-1.57969,-1.749,0.68007,0.43582,0.77345,-0.05501,-0.84803,0.07362,0.12967,0.75211,-0.01328,0.05676,0.13241,1.40478,-1.52608,0.24618,1.66689,0.86522,0.18065,1.64878,-1.29412,0.96667,-0.22665,0.80211,0.08146,0.23965,-0.78316,-1.08477,-0.1933,-0.18938,-0.25565,-0.15415,-0.25847,-0.19096,-0.28906,-0.80503,3.65288,-0.05031,-3.60548,0.75142,2.71686,-6.41065,-0.05162,1.63342,3.78003,0.00181,0.08625,-0.03733,-1.07793,-0.0884,0.15312,0.48204,-0.02633,0.05204,-0.20459,-0.16695,-0.16648,-1.1784,1.06064,0.16798,-1.52321,-0.41069,0.12971,2.14171,3.6303,1.53743,-0.26375,-0.07214,-0.32074,0.03629,-0.47931,-0.74266,-2.47944,-0.74093,0.09469,-0.42908,-0.00393,-0.06312,0.13233,-0.59279,0.83918,0.59217,-1.96206,0.11116,1.75487,-0.45607,0.48077,1.0043,0.6887,-1.09945,-0.23828,0.4231,-0.02847,-0.17328,-1.06601,-0.04295,0.06592,0.10274,0.09017,-0.1615,-0.21539,0.36649,0.44515,0.14276,-2.25359,0.10141,0.53974,0.32344,-0.16324,0.31078,-0.73628,0.05267,0.09702,0.00477,0.2762,0.73622,0.86308,0.09494,-0.08829,-0.0968,-0.10419,-0.04433,0.04599,0.08516,-0.04376,-0.24722,-1.63517,-0.91226,-0.48469,3.72362,-0.00033,-3.37753,1.28871,0.13978,-0.82225,0.60932,0.4253,-0.31432,0.41829,-0.03403,0.12773,-0.00384,-0.03642,-0.07498,-0.03288,-0.0066,-0.94131,0.52167,0.49704,1.22368,-3.8059,0.21356,-1.90615,-2.55829,3.41089,3.33628,-2.55858,0.77962,0.2981,0.23733,0.02603,-0.0738,0.12448,0.15727,0.0034,-0.09087,-0.11329,-4.71716,2.80612,-0.26094,3.28197,0.87364,0.05322,-0.87993,-1.18044,-0.03122,1.08231,0.44744,-0.41088,0.48446,-0.90253,0.21152,0.53934,0.04839,-0.1596,0.15417,-0.1182,0.09257,0.04061,0.45651,-0.53048,-0.04582,-0.50007,-0.52012,-1.89724,-2.48439,-3.25788,0.48726,-0.92067,-0.18302,0.38228,0.47506,1.552,1.32968,2.8671,-0.00383,0.17306,-0.26257,0.11561,0.07462,0.11425,0.94452,-0.91984,-0.02226,2.01963,-4.21789,0.93007,0.52354,1.13308,-1.67321,0.27375,0.21825,0.43784,-0.20334,0.016,0.06582,0.51769,-0.16989,0.0398,0.08887,-0.1992,0.04725,-0.15788,1.45066,-2.58976,0.09166,2.74599,1.58523,1.68176,1.05405,0.66728,2.22689,0.76059,0.82047,-0.51934,-0.96109,-1.45081,-5.36733,-2.35967,0.05779,-0.10169,1.39588,0.01594,-0.1134,-0.07158,-1.81757,4.67642,-0.18203,-2.61089,0.35252,0.43751,0.76962,-0.47433,-0.04059,1.32169,-0.50786,-0.4698,-0.23483,-0.61209,-0.23022,0.37188,-0.02998,0.18419,-0.4496,0.19411,0.33435,0.03894,-2.34111,3.00338,-0.25843,-1.83624,-0.37767,0.51826,0.09713,0.32999,0.25558,-0.36768,0.35202,0.24943,-0.00819,-0.01772,-0.27944,-0.03429,-0.11788,-0.0654,-0.09212,0.06136,0.15056,0.07064,-0.96868,0.40679,0.11466,-0.74355,-2.99654,-4.02852,3.21024,-0.71697,7.65663,1.25847,-0.09182,-0.52537,1.3485,-1.2812,-0.76262,-0.55204,0.21855,0.00768,0.105,-0.13525,0.04578,0.17347,-1.18729,-1.84089,0.07057,-0.01794,-0.27814,-5.21007,-0.43256,0.00481,0.2791,1.8834,3.38484,-0.53364,0.2795,-1.89274,1.06955,-0.77921,0.05621,-0.07358,-0.21203,0.17447,-0.03348,-0.02302,-4.45798,5.11157,-0.05028,0.71049,0.90671,-1.65101,-0.73752,-2.96203,0.3092,3.43627,2.23068,-2.2769,-0.59386,-0.70041,0.34918,0.92805,0.22249,-0.07375,-0.23281,-0.02525,-0.03874,0.11487,0.9024,2.02184,0.20953,-2.54467,-1.67706,1.95366,0.26387,-1.10536,-0.10083,-5.84093,0.37702,1.8924,0.36333,1.41581,1.42021,0.2732,-0.82157,-0.25235,-0.10112,-0.02328,-0.23526,-0.07806,0.91129,-2.05201,-0.26899,2.98975,1.30289,0.42317,0.40036,-2.25781,-1.57643,1.17633,1.08001,1.30663,0.18517,0.92736,-0.61383,0.64316,-0.10606,-0.1632,3.78903,-0.18301,-0.01713,-0.03823,-2.9452,-4.98278,-0.25272,1.74183,0.43451,-0.21205,-0.3473,-0.42918,0.19096,-0.58414,-0.23491,0.67481,0.19853,0.11441,0.48462,-0.17716,-0.0884,0.03546,0.17393,0.01788,0.09572,-0.06961,-0.67192,-0.68779,-0.51155,1.69043,-0.07554,-0.07519,0.06303,-0.48575,-0.69674,0.31427,0.36726,0.22552,-0.30174,0.15004,0.07782,-0.21076,-0.27353,-0.28984,0.07491,0.03584,-0.08443,-0.05524,1.11875,-0.85844,-0.00594,0.91096,-0.61597,-0.14917,-1.09966,-0.62673,1.02691,-0.20502,-0.38897,-0.44529,-0.42383,-0.24286,-0.98701,-0.49072,-0.25288,0.06187,1.13174,0.10099,0.28444,-0.02838,-0.52199,-2.0655,-0.3217,6.80043,-1.36096,-1.75572,-1.86153,1.73166,-1.49085,-1.25747,-1.23563,1.45825,1.58713,2.95057,3.60889,2.03753,0.37968,0.0958,-1.11023,-0.2279,-0.1281,-0.02989,2.46843,-5.14034,0.4123,-0.16358,-0.99858,1.87077,-0.52142,0.06893,-0.2288,0.11461,-0.20161,0.00236,0.05679,-2.01668,-0.97829,0.04869,-0.07577,-0.08575,-0.06908,0.19117,0.24808,0.02408,1.21918,3.96205,-0.24901,-3.25959,2.11561,-2.81091,1.83196,0.76081,-0.80728,-1.04712,-0.52055,0.05354,0.17322,0.28394,0.82417,0.09259,-0.0859,-0.18496,0.05483,0.12016,-0.16559,-0.21057,0.20842,-2.34403,0.33229,1.0143,-1.15371,2.1348,0.25062,0.47568,-0.44814,0.44504,0.30547,0.08348,-0.03153,-1.07189,-0.50956,-0.0639,0.02995,0.04856,-0.20625,0.18709,-0.12376,0.03741,-0.02997,1.31002,-0.1776,-1.85381,0.42309,-0.70053,0.03233,-0.60487,0.78138,0.65082,0.40289,0.10967,0.31289,-0.78625,-0.6267,0.5146,0.24208,0.20931,-0.03806,0.24718,0.2671,0.15941,-2.51007,1.97565,0.49797,-0.28787,-1.93673,-1.00239,-1.40618,-1.91125,-2.57481,2.39807,0.5234,-2.3533,0.20121,2.42741,3.13586,1.45306,-0.01289,-0.1425,-0.19056,-0.03587,-0.05139,-0.03047,2.2702,0.71415,-0.10388,-2.15655,-0.22758,2.34577,-0.21985,-0.01541,0.56225,-0.07305,2.16897,0.05069,-0.31044,-2.32665,-0.33049,0.35971,0.20935,-0.15847,0.02422,-0.08678,-0.28163,0.04329,-1.97313,3.55448,-0.02581,-2.90744,-0.25211,-0.37255,0.24079,0.7566,-0.05286,0.33708,0.20995,-0.27065,0.03477,0.14478,-0.4439,-0.1168,0.20422,0.05404,-0.21,0.23402,0.16871,0.12396,0.27451,1.25424,-0.11083,-0.42529,0.50655,-2.33165,1.66111,-0.07183,1.24065,2.6948,0.1488,-1.18311,0.01741,-1.42293,0.24095,-0.47261,0.00019,0.16908,0.02523,0.15579,0.02956,0.1728,-0.14584,0.5214,0.25424,-3.18163,0.52781,-1.58117,0.75682,-0.35644,0.6824,0.02732,1.13454,1.07855,-1.05928,1.93667,-1.26079,-0.37892,0.06314,0.0989,1.7978,0.22274,0.05125,0.24887,-0.52746,-1.27161,-0.1484,-1.23639,-0.05785,1.7377,-1.452,3.19279,-2.96178,0.21041,0.14436,-0.44323,0.14289,-0.1633,0.69723,-0.50923,0.55264,-0.06001,-1.27831,0.03412,0.02052,-0.10472,0.228,-0.26243,0.49389,0.24884,0.99205,-0.0852,1.16611,5.08954,-2.56544,-0.59305,-0.95955,-1.46661,-0.18285,-1.11408,-0.00962,-0.02142,0.10919,0.2985,0.1115,0.29718,0.18239,0.36579,-0.78544,0.66102,0.40835,-1.76296,1.64858,1.68707,-2.95002,-0.05137,-0.70277,-0.82678,-1.15053,0.66257,-0.90817,-1.60795,-0.11471,-0.43352,0.23738,0.00889,0.23908,-0.1976,-0.16708,-0.18909,2.01722,0.57137,1.0539,0.35771,0.48133,-1.44142,0.13397,0.64653,-0.00401,-1.20059,0.2641,-1.56414,0.63937,-1.05062,0.86607,-0.1918,-0.51722,0.2281,0.24895,-0.00825,-0.02512,0.23497,-1.46593,-1.93209,0.04455,5.44325,1.06409,1.39991,-0.32308,-2.05619,1.88844,-0.38882,0.79929,-0.37572,0.27724,-0.76036,0.63648,-0.19004,-0.31635,-0.03707,-0.10519,0.15851,0.04762,0.29396,0.02215,0.06664,-0.04373,-2.13717,0.50485,0.46307,0.15404,0.85956,1.35232,0.64593,-0.62991,0.53278,0.21395,-0.8975,-0.20371,-0.55418,-0.07203,-0.26874,0.03708,0.09393,-0.07399,0.0139,-0.03342,-0.55717,0.24228,-1.17476,0.47175,0.8993,0.02954,0.86748,-0.24146,-1.76042,-1.40031,0.1335,-0.11557,-0.05373,0.2302,-0.63507,0.18819,0.3509,0.02814,0.11969,0.08258,0.13075,1.33403,0.58264,-0.2214,-1.31206,-0.44845,1.09304,-0.21992,-0.5855,1.3858,0.92471,0.5827,-0.33761,0.24218,-0.18019,0.19635,-0.09004,-0.22309,-0.01177,-0.11816,0.00824,-0.10536,0.06379,-3.39686,0.69501,-0.13103,0.42845,-0.2889,0.94378,-0.98953,-0.17958,-0.62854,-1.01469,0.5526,-0.45957,0.04604,0.81036,-0.51723,0.11957,-0.19564,-0.17576,-0.31157,-0.03043,0.11585,0.0186,0.28102,1.65043,-0.39646,1.50179,-0.91283,-2.70672,1.41781,-1.04209,0.54012,0.33165,0.09923,0.66664,-0.00499,1.4179,-0.22572,0.0656,0.23748,0.03874,-0.25163,0.05283,0.17763,0.15955,-0.54042,-0.84483,0.10525,1.31941],"b":[1.16377,0.67271,-0.48496,-0.36024,0.24776,1.12653,-0.08116,-0.03055,-0.18829,0.58436,-0.05005,-0.28895,-0.35788,-0.39796,-0.28567,-0.36954,-0.4154,-0.42768,0.0206,-0.70115,-0.40733,1.03109]}]};
