'use strict';
/* Trained advisor network — generated by dev/train.js (behavior cloning
 * of the teacher policy over headless self-play games). Do not edit. */
const AI_WEIGHTS = {"sizes":[57,48,20],"layers":[{"W":[-1.11962,-2.38505,-0.50632,1.3777,0.19416,-0.8808,-0.97635,1.22628,-0.62266,-0.08966,0.99877,2.53777,-0.68487,1.64333,-0.10338,2.93992,-0.17142,-0.083,1.09525,1.14087,0.72282,1.39353,0.41111,-8.64233,0.02781,-1.26132,-2.73756,2.45072,-1.27725,-0.29213,-0.41686,1.605,1.32406,0.10885,-0.72484,0.72671,0.57098,-0.64038,-2.16464,0.16404,0.71264,-6.70006,-0.082,-0.23195,-0.17209,-0.654,-1.73855,0.77047,-0.0339,-0.29211,-0.26006,0.16828,0.1774,0.2733,-0.05926,0.0544,-0.07364,-0.1019,0.18421,0.05375,-0.20914,0.40991,-0.06276,-0.05514,0.03177,0.13152,0.03372,0.20622,0.03736,0.20073,-0.12469,-0.15012,0.17373,0.40116,-0.32841,0.05887,0.36208,0.1046,0.28904,0.18373,0.22542,-0.08262,0.0856,0.1693,0.13705,-0.33225,-0.33258,0.02985,-0.1596,-0.42532,-0.34158,-0.25482,0.01253,-0.28865,-0.0073,0.13853,0.05993,0.10122,-0.02124,-0.09223,-0.20685,0.07299,-0.06793,-0.06674,-0.062,-0.06591,0.12319,0.34878,-0.11077,0.12234,0.0828,0.14589,0.08016,-0.10041,-0.35451,-0.14825,-0.27075,-0.08637,-0.1615,-0.10796,-0.18904,-0.00548,0.04802,-0.49999,-0.00309,0.06248,0.16344,0.16908,0.22931,-0.08581,-0.00513,-0.03982,0.02928,0.02388,0.04225,0.05723,0.07558,-0.3316,-0.02264,-0.15998,0.3711,-0.1681,-0.10639,-0.24293,-0.81079,1.20559,-1.79556,0.96267,-1.33775,3.73825,-2.10085,-0.16178,0.12465,-1.01961,-0.97942,-1.4091,1.78144,2.72796,0.73921,-7.03697,0.38554,-0.56498,-3.07163,0.10998,1.91671,0.68649,1.3901,4.90594,0.29064,6.47135,-0.23602,-12.56541,3.00508,0.46099,-1.2994,2.13342,1.64377,1.19569,1.2519,0.29076,1.82191,-3.67261,-3.24426,0.23345,-2.09589,3.31159,1.05683,-1.51416,1.53989,-2.51615,3.8284,-8.03856,-0.392,-0.51283,0.01164,0.00861,-0.07588,0.21847,0.1788,0.01743,-0.03686,0.16412,0.0338,0.32273,-0.5958,-0.5373,0.35147,0.40902,0.19059,0.10992,-0.37491,-0.18356,-0.44823,0.16549,0.16098,-1.06192,0.23825,-0.21146,0.24509,-0.25322,-0.30167,0.10048,-0.2099,-0.14426,0.11221,0.56519,-0.96736,0.05992,0.23883,2.06125,0.29228,0.78829,0.21942,0.09073,0.198,0.42582,-0.18676,0.0678,0.52743,0.36799,0.0272,-0.1743,-0.08082,0.22501,-0.26333,0.10636,0.03693,0.03031,0.08535,-0.0893,-0.01782,0.26579,-0.26688,-0.19685,0.09233,0.43964,0.2696,0.00107,-0.39881,-0.15813,-0.46982,0.0856,0.15772,0.03699,-0.00976,-0.23277,-0.06138,-0.26979,0.01048,-0.1496,-0.25863,-0.12798,0.37941,0.10497,-0.1542,0.10522,0.39679,0.53121,-0.01462,0.15842,0.07086,0.0764,0.09845,0.16318,0.17476,-0.26661,-0.18526,0.10753,-0.00123,0.12012,-0.08517,0.13489,0.10621,-0.1668,-0.14554,0.02019,0.14606,-0.01309,-0.07782,-0.09032,-0.13059,-0.05766,-0.11384,-0.04151,0.09828,0.1565,-0.00525,-0.17715,0.12509,0.07602,-0.16403,0.17651,0.05315,-0.08253,-0.14808,0.24815,0.00688,-0.01409,-0.05915,0.16491,0.00154,-0.05285,0.00933,-0.13593,0.18982,0.23994,-0.01747,0.04095,-0.01798,0.1017,0.023,-0.1358,-0.16876,0.16184,0.05619,-0.18092,-0.11581,0.1087,0.12038,0.17574,0.08209,0.04122,-0.15721,0.01431,0.17869,0.18574,-0.15236,0.01386,-0.10256,-0.08314,0.10568,-0.02904,-0.08113,0.15354,-0.10071,0.102,-0.16131,0.17185,0.09859,-0.12141,-0.17089,-0.09596,0.00315,-0.16314,0.10772,0.15031,0.13977,-0.11256,0.13082,-0.05294,0.11836,0.13578,0.17051,0.15093,0.13183,0.16584,0.07385,0.15619,0.1477,-0.14123,-0.15781,-0.05749,0.04273,-0.06896,-0.15009,0.08379,-0.12781,-0.13729,0.05626,0.00434,-0.14559,0.14837,0.03055,-0.10106,0.14588,0.17932,-0.16821,-0.08747,-0.13987,-0.13515,0.10697,-0.1261,0.06269,-0.00529,-0.15949,-0.1204,-0.15703,0.05002,0.07757,-0.15065,0.0213,0.13007,-0.15011,-0.14371,0.06481,0.0556,0.11937,-0.18559,0.18547,0.03623,0.09661,0.01144,-0.08143,-0.17765,-0.08827,0.16673,-0.16291,-0.06422,0.01994,0.11773,-0.00093,-0.00959,-0.13008,0.35289,-0.49247,-0.08111,1.04475,3.38742,-1.31357,1.02312,0.2232,1.48366,1.99654,-0.44029,2.8811,4.71009,1.57608,-0.09884,-0.19635,-1.68164,-1.21854,0.05772,2.17683,1.12613,4.87124,-8.3187,0.14883,-2.29759,1.16687,0.41809,2.99637,-1.00323,-4.82138,4.5535,-4.64219,-0.74432,2.74116,-0.6979,-2.66304,1.70722,-5.78134,-4.45578,-0.92373,0.9006,1.09029,1.58861,-1.34324,0.26105,-0.66175,-2.57648,0.06909,-0.87579,0.16012,-0.13075,0.48629,0.42434,0.14396,-0.10057,-0.0399,0.49815,-0.22627,0.64889,0.35559,0.46563,0.16715,0.39191,-0.18471,0.34922,1.06462,-0.10998,0.46329,0.51224,-0.86637,0.07866,-0.1016,0.34931,0.03459,2.12844,0.00755,0.41636,0.20083,0.09883,-0.07048,-0.27681,0.36033,0.13413,-1.03627,-1.59319,-0.22687,-0.07371,-0.17086,-0.49784,-0.83607,0.56948,-0.35475,0.00667,-0.7357,-1.18219,-0.14168,-0.00205,-0.2166,0.1889,-0.28115,0.6893,-0.51479,0.03013,-0.17429,0.24534,0.17652,1.43746,-0.80725,-0.30065,0.35536,0.1091,0.65755,0.06809,-2.04697,-0.04102,-1.0081,-0.12502,0.23557,0.60595,-0.33072,0.39882,-0.10595,-3.02686,0.00646,0.01561,-0.21865,0.37797,0.32021,0.06908,-0.40096,-0.19429,0.6336,0.51349,-0.02081,0.07715,-0.13888,-0.40244,-0.80297,-0.04768,0.80155,-0.18519,0.08981,-0.65121,-0.89071,-5.94524,-2.24031,2.08625,4.81434,9.33376,-2.58835,0.32084,0.10101,-4.55616,1.31142,0.72112,3.3534,-11.52799,2.70756,-8.44806,4.4961,1.40523,-10.81053,0.54933,-7.75274,6.67756,-0.97292,-2.4124,-0.59646,4.87625,-0.64828,0.43627,4.67805,0.50716,2.55967,4.76021,4.30187,2.81672,2.24876,0.49287,-2.65971,1.52939,-2.0357,3.3815,-0.57961,-0.16984,2.74201,1.75236,2.13853,-4.25209,3.19923,-14.41215,-0.5925,0.60326,-0.79815,0.59457,0.09728,0.28693,1.96338,0.06843,-0.08911,1.38486,0.11026,-2.64938,-2.81471,1.62273,0.81561,2.10028,1.51835,-0.21012,-6.48821,-0.26562,0.18268,2.44802,0.32602,0.04191,0.82101,0.04101,-0.36867,-0.98576,1.00713,0.41758,-0.88351,-1.99188,-0.98334,0.36423,-2.66353,0.04256,0.8489,1.74212,-0.73801,0.95057,0.10814,1.35361,1.66837,0.12178,0.50152,0.65677,-0.74653,-2.74931,0.06649,-0.21244,-0.04344,0.08174,-0.8084,0.72678,-0.3648,0.08707,0.11593,0.32981,0.34008,0.85038,-0.9738,-0.73357,0.24448,0.88631,0.75491,-0.00624,-1.55318,-0.26136,-1.26741,-0.04537,0.20637,-0.19578,0.08622,-0.30342,-0.29107,-1.00978,0.12764,-0.18301,-0.03877,-0.13433,0.85817,-0.2679,-0.71278,-0.2684,1.13319,1.4946,0.27592,0.40014,0.02548,-0.17816,-1.02106,-0.46811,0.6809,-0.29668,-0.05925,-0.33965,0.00275,0.53882,0.12218,0.03214,0.07694,-0.04067,0.05551,-0.07719,-0.11844,0.25543,0.17165,-0.40368,-0.45204,0.28042,-0.16788,-0.16469,0.58197,-0.14678,0.00374,-0.10307,0.75769,-0.01231,0.25518,-0.11781,-0.45551,0.15378,-0.60447,-0.63495,0.29377,-0.11991,1.03719,0.01904,0.00504,-0.24815,0.05092,-0.05299,0.09022,0.3329,-0.21625,-0.10261,-0.00402,-0.0303,-0.78464,-0.20972,0.3432,0.08866,0.16272,-0.02283,0.1305,-0.1871,0.14268,0.03454,0.14876,-0.1751,-0.08903,-0.0768,0.16153,-0.13168,-0.06196,0.13475,-0.00134,0.14664,0.16309,0.02634,-0.02196,-0.14347,0.06189,-0.07112,0.03664,-0.13482,-0.06952,-0.13637,-0.10561,-0.13279,0.12024,-0.03396,0.07558,0.00989,0.07425,-0.14488,-0.10744,0.17828,-0.135,-0.14645,0.088,-0.00508,-0.15461,-0.11358,-0.0723,-0.14336,0.00309,0.0689,-0.10642,0.1639,-0.17911,0.04449,-0.09802,0.00264,0.13918,0.13125,0.02416,0.12518,-0.06618,-0.13474,0.06705,0.08314,0.07126,0.10073,-0.04179,-0.16643,-0.16818,-0.01967,0.09028,0.13735,0.16879,-0.17496,-0.02467,-0.16186,-0.10281,0.01212,-0.14571,0.03916,0.11539,-0.17384,-0.18093,-0.16075,0.07109,-0.15249,0.09247,0.18349,-0.1167,0.00365,0.12142,0.07523,0.05488,0.02972,0.15916,0.00176,0.05761,0.14095,0.15605,0.07299,0.13391,-0.17848,0.46214,-1.25365,-0.56329,1.72151,2.32181,3.54634,-0.8382,1.47974,-0.85134,-3.31636,0.95312,-2.76009,-1.3919,8.07474,1.40767,0.39409,0.01257,-0.35103,-0.58945,1.35304,2.86719,1.84833,0.19768,-1.81746,1.57925,1.55454,-0.53598,4.15398,3.05554,0.45259,3.11903,1.63329,2.96669,0.51082,-0.98122,0.84852,1.23522,-7.88489,-0.27345,0.74449,-1.53158,-2.94551,-2.15133,-2.34625,0.97709,-0.9042,2.14271,0.6471,-5.37382,-8.61848,-2.97635,3.48052,-9.13257,4.82821,-2.58595,0.86412,-1.82189,-1.5371,3.11104,-0.4888,-11.65021,10.94604,3.378,2.02199,2.11385,-0.59667,-7.12651,2.34713,3.14706,3.55946,4.77973,-9.18798,2.06785,10.96396,0.01086,2.58911,3.03893,3.66682,-11.17606,6.19898,5.79478,8.43663,-9.18059,2.15256,5.39637,2.05345,-2.3837,8.6915,-0.97993,-6.14041,0.62696,1.29577,2.94436,-4.67162,7.80553,-4.80745,-0.09653,-0.39519,0.02653,-0.03342,-0.35637,0.26011,0.06058,0.01331,-0.12496,-0.19648,-0.02943,0.38516,-0.86264,0.43328,-0.02738,0.1433,-1.05488,-0.08712,0.05063,0.03081,-1.94341,-0.17336,0.27581,0.36691,0.58207,-0.69453,0.66721,-0.57717,-0.1335,-0.01574,-0.85378,0.05001,-0.0434,0.31357,-0.14422,-0.21925,-0.06523,1.10103,-0.28354,0.14249,-0.08517,-0.24613,-0.81938,0.01641,0.0228,-0.08473,0.71807,-0.12931,-0.17913,-0.02508,-0.12368,-0.06606,-0.10701,-0.12145,0.13791,-0.09199,-0.0482,0.05938,0.00586,0.07841,-0.00475,0.10748,0.06165,-0.10292,-0.03082,-0.11339,0.17854,0.06675,-0.17501,-0.13428,-0.0201,-0.03807,0.15325,-0.05732,0.04779,-0.1769,0.18376,0.00116,0.06559,-0.09306,-0.06882,-0.00489,-0.07939,0.13956,0.16352,-0.11957,0.00099,-0.03802,-0.17883,0.14429,-0.08372,-0.08179,-0.08354,0.12436,0.11306,0.17354,-2.44352,0.25349,-1.59634,1.90698,-2.66237,5.85305,-1.88892,1.1002,-0.47008,-1.09811,0.30836,-3.15976,-2.05553,4.99465,1.44302,0.67866,1.66936,-1.6055,-6.41839,0.61191,1.36699,2.71008,3.45177,-0.98346,0.89624,4.43183,-1.12908,-6.08606,4.19432,0.53896,-1.42939,2.59726,2.76688,1.38734,-2.75224,-0.26878,2.57994,-5.15317,-2.04847,1.28711,-1.26085,-0.54814,-2.61324,-1.74626,1.7414,-1.66253,4.84607,-3.23889,-1.08904,-1.16614,-1.15487,1.62273,0.60517,4.3117,-1.23946,1.05524,-0.50466,-0.99983,0.59812,0.69761,-2.53121,3.8736,0.88303,1.39881,1.19282,-0.82642,-4.79325,1.1195,-1.77337,2.4384,1.56137,0.0805,1.00767,1.98234,-1.67924,-3.99804,2.33223,0.31824,-0.22492,1.97403,2.49845,1.03842,-2.38909,0.39001,3.19919,0.8695,-3.01127,1.01622,-0.72208,-1.79832,-4.11992,-1.88956,1.88774,-0.8924,3.10956,-0.44653,-2.60324,-1.82073,-1.44939,2.1932,-1.29235,4.44635,-1.61615,1.02882,-0.63032,-1.33478,0.92306,-0.40605,-2.09739,4.51692,1.05088,3.49656,2.75568,-0.73599,-7.34654,1.89126,-0.47074,3.8189,5.35606,-2.50228,0.95243,3.77083,-2.67009,-5.28946,3.626,0.58562,-3.99397,2.7691,2.20231,1.26957,-2.92591,0.15268,3.93013,-1.89159,-4.54297,1.21886,-1.05333,-2.13067,-3.76606,-2.41301,1.98283,-1.16297,3.58546,-2.80411,-0.42485,-0.45355,-0.20892,0.32672,0.0665,1.49347,-0.4129,0.13307,-0.24312,-0.46136,0.12848,1.32835,-0.79367,0.5158,0.3113,-0.26051,0.36747,-0.11919,-1.44472,0.01525,-0.76323,0.37889,0.03472,0.34812,-0.16747,0.76867,-0.5107,-1.60441,1.05565,0.7817,0.92332,0.4734,0.82991,0.24729,-0.69712,0.18421,0.95385,0.9301,-0.00259,0.70956,-0.07203,-0.39185,-1.27086,-0.13926,0.28556,-0.18497,0.79305,-0.11896,-0.08066,-0.46347,-0.32048,0.32213,-0.6652,1.33663,-0.44631,0.161,-0.14396,0.40957,-0.1517,0.39349,0.14126,-0.40561,0.24839,-0.38329,0.17879,-0.04296,-1.44076,-0.07071,-0.57777,0.46768,0.34393,0.64312,-0.18114,1.03191,-0.15846,-0.80709,0.15547,0.12655,0.07353,0.21242,0.42163,0.32278,-0.35882,-0.16085,0.28092,0.77552,-0.88015,0.16501,-0.2613,0.30618,-2.73967,-0.36658,0.29301,-0.09044,0.97672,-0.57923,-1.80526,-1.01067,-0.80234,2.83793,-0.408,2.94792,-1.28544,0.82575,-0.40644,-0.91799,0.3104,1.20085,-1.03518,2.9502,1.15198,-0.172,2.03833,-1.30454,-5.15455,0.62857,-1.62992,2.9289,1.28836,0.13258,0.70108,2.88731,-1.09979,-5.06875,1.73984,0.50219,-0.77118,0.96539,2.12661,1.08727,-0.65486,0.2186,0.88148,3.7358,-2.46546,0.66357,-0.70882,-0.7381,-2.77363,-1.1664,1.08346,-1.17926,2.33711,-0.76542,-1.23898,-0.47541,-1.29578,1.28468,-2.57936,3.31407,-1.92985,0.08292,-0.29036,-1.81099,-0.12481,2.43176,-2.63925,4.28563,1.73172,-2.17082,0.71577,-0.10169,-5.58097,0.63397,0.08577,0.6074,0.3971,-2.99099,1.42031,1.60382,0.18191,-4.77401,2.8252,0.94842,-1.98917,2.14402,2.8332,1.82971,-1.62949,0.48798,2.71444,-0.83207,-2.6382,1.82573,-1.505,1.31505,-0.44228,-1.24186,1.6966,-2.26533,3.98696,-4.81923,-0.16694,-0.5462,-0.78142,0.07624,-1.80772,3.71001,-0.86893,-0.07097,-0.06855,0.28327,-0.0709,-4.52807,-3.38091,0.38865,0.73887,-1.5157,0.957,-0.95549,-4.93805,-0.32656,-1.88516,2.11855,0.38063,9.86557,-0.04413,4.82802,-0.53712,-4.14169,-0.47756,0.68009,1.112,0.87641,1.66322,1.15976,-1.46929,-0.16273,0.63314,6.78181,-0.76878,1.91118,-0.67231,2.18007,-5.27093,0.22333,0.74046,-0.41862,2.4529,2.21265,0.0322,-0.35715,0.08684,0.02347,-0.20752,0.45532,-0.39806,0.18165,0.1031,0.23982,-0.01696,0.63652,-0.95866,-0.35509,0.10106,-0.16208,-0.01142,-0.33424,-1.11174,0.12124,-0.86351,-0.10811,-0.01007,0.30236,0.37458,-0.06684,0.46516,-0.55038,0.02647,-0.00357,-0.38059,0.14334,0.62655,0.05114,-0.46194,0.03933,0.3801,1.46422,-0.02545,-0.05682,0.10521,-0.19199,-0.84321,-0.35723,0.35563,-0.34113,0.37479,0.12738,-0.14767,-0.31133,0.00697,0.12785,-0.1705,0.06533,-0.14666,-0.00817,0.10676,0.02168,-0.01095,0.1428,-0.45462,0.52372,0.00311,-0.06094,-0.04249,-0.06975,0.12488,-0.11221,-0.71028,-0.26192,-0.01331,0.06776,0.02765,-0.31243,0.3794,-0.32238,0.77846,-0.10179,0.01266,0.35629,0.56737,0.2306,-0.07174,0.10071,0.32675,1.23284,0.10881,0.2005,0.17407,0.04212,-0.49804,-0.18483,0.28298,0.09846,0.34404,-0.08292,-0.56618,0.77951,-0.62254,-0.02282,-1.20348,1.59655,-0.61042,-0.00717,0.07901,0.09735,0.30041,-0.62255,-1.21906,0.08576,0.71981,0.54121,0.67414,-0.30079,-3.08387,0.00844,-1.82736,0.62817,0.33822,0.41908,0.13948,2.20201,-0.1969,-4.53748,0.56534,0.3024,-0.54017,1.0497,0.98931,0.24503,-1.41005,0.02019,1.39695,4.61464,-0.56557,0.36785,-0.12319,0.61661,-1.11942,0.08619,0.76608,-0.15408,1.54749,1.0008,-0.44237,0.5501,-0.5435,0.18368,-0.75661,1.85326,-0.63148,-0.0241,-0.00409,0.50483,0.20779,2.43481,-0.39373,-0.29816,0.3898,0.86601,0.55823,0.0141,-2.2556,0.02281,-1.83539,0.10945,0.17858,-0.45008,-0.18513,1.71744,0.02424,-4.01022,0.01541,-0.00816,-0.38841,0.72973,0.9426,0.44009,-0.9544,-0.08915,0.8133,2.7267,-0.31198,0.40766,0.02727,0.64042,-1.30433,-0.11954,0.94573,-0.13499,1.26843,0.02473,-0.04754,0.21028,-0.06854,0.03955,-0.11931,0.29053,-0.04009,-0.19537,0.04697,0.12796,-0.11247,0.25529,-0.25834,-0.18031,0.24912,0.31227,0.44852,0.01279,-0.75162,-0.07987,-0.37019,-0.03691,0.11969,0.22871,-0.13486,0.14747,0.05,-1.37238,-0.14982,0.15803,-0.08995,0.10953,0.15409,-0.00933,-0.11017,0.17219,0.21948,0.09472,-0.1678,-0.01359,-0.03169,-0.10002,-0.10632,-0.15439,0.38472,-0.15523,-0.07405,-0.23718,0.05068,0.18867,0.16366,0.21163,-0.07332,0.75234,-0.06889,-0.13636,-0.11977,0.17628,0.07093,0.53243,0.20583,-0.03311,0.21065,-0.07273,0.49072,-0.02523,-0.54265,0.00075,-0.06756,0.21819,0.05578,0.59036,0.18108,0.05514,0.17342,-1.66977,0.09765,0.08575,-0.0676,-0.12689,0.05435,0.17637,-0.08497,0.12075,0.14015,0.8637,-0.20132,-0.06827,-0.11232,0.22012,0.04993,0.15286,0.27528,-0.02444,0.36709,0.33842,-0.06122,0.00467,0.14653,-0.13479,0.0013,0.12851,0.08345,-0.15789,-0.04895,0.05417,0.16795,0.08973,-0.08651,-0.06191,0.09422,-0.14894,-0.10073,0.12012,0.04519,-0.05929,0.18648,0.1254,-0.12839,0.08839,-0.14961,-0.05168,-0.04029,-0.05396,0.04141,0.02282,0.07425,0.02706,0.16231,-0.17388,-0.12881,0.04742,0.15186,0.04546,0.16918,-0.05322,0.09178,0.11682,0.1069,0.11817,-0.12937,0.11797,0.08048,0.12221,-0.06348,-0.13772,-0.18484,-0.01622,0.12781,-0.10248,-0.0995,-0.11551,-0.03122,0.14848,0.17541,-0.03895,-0.07934,-0.0365,0.09582,0.0381,-0.04401,0.1431,0.03906,-0.14403,0.01204,0.00054,0.08638,0.03528,-0.13461,0.12945,-0.18236,-0.17996,-0.13267,-0.03142,0.10971,-0.12462,0.06038,0.15212,0.14743,-0.09473,0.03889,0.13556,-0.10883,-0.03129,0.04121,-0.12375,-0.00682,0.07856,0.02671,0.10253,-0.0154,-0.1122,-0.17994,0.00467,0.06829,-0.04164,0.16611,0.05678,0.03616,-0.16073,-0.14442,0.1819,0.16442,0.07301,-0.02801,-0.01481,0.04804,-0.15602,-0.15342,-0.10249,0.09818,0.09119,-0.15999,-0.15092,0.16102,-0.00836,-0.13305,0.17918,-0.15144,0.09892,0.1535,-0.08686,0.03931,-0.08813,-0.17438,-0.13665,0.00728,0.07381,-0.15495,0.05184,-0.01566,0.01516,0.15287,0.03909,0.16867,-0.08933,0.02724,0.13184,-0.00631,0.06622,-0.0488,-0.10077,0.04153,0.02041,-0.21682,0.19698,-0.03597,0.09025,0.20318,0.02484,0.1476,0.54465,-0.6184,-0.24251,0.05793,-0.0941,0.63115,-0.05637,-1.06305,0.04773,-0.21315,0.47218,0.00511,1.57354,0.20218,0.53802,-0.03455,-1.53164,0.05549,0.01621,-0.17946,0.28164,0.15807,0.21639,-0.25484,-0.06977,0.39635,1.55301,-0.13184,0.19622,0.18544,0.36217,-1.28928,-0.11984,0.25663,0.15951,0.21959,-0.946,3.5975,0.61753,-0.1088,0.2851,1.35135,0.79946,-0.84888,-0.20094,-0.35159,-1.03327,-0.33734,2.12659,-0.96173,0.85552,0.54007,-2.54167,-0.31695,0.34004,0.43781,0.22213,-0.18132,-1.32248,0.95748,4.75005,0.19375,1.13469,0.07375,-1.64897,1.09883,0.12272,1.21949,-0.22017,2.14028,0.00727,1.99051,0.78731,1.34879,0.8861,0.38672,0.80691,0.04868,-0.47361,-1.96401,-0.01773,1.11823,-0.16157,-0.65963,3.57126,0.96795,1.82602,0.38163,1.53227,4.8632,-5.62907,1.76183,0.62385,-0.81518,-7.00189,2.46613,-0.1154,-3.04138,10.2643,0.09286,3.57106,0.04822,-0.16917,1.82301,2.97122,1.24789,0.97223,-1.5294,-6.23835,1.85197,-3.77869,-0.44876,2.10403,3.51822,0.16383,2.03524,0.49938,0.92623,-0.50899,-0.01161,1.19319,1.04451,-2.3711,2.81185,-1.08672,0.2809,-2.57552,20.8493,-0.16168,-1.41284,-0.32482,-4.36154,8.96965,-0.32384,-1.46247,-1.91649,3.65082,1.31041,6.74701,-2.91619,1.66553,-1.05813,-2.66715,0.88103,2.19654,-4.17844,7.05893,1.99433,0.0645,2.28672,-1.1504,-7.92026,2.03221,-2.24793,3.43153,0.80264,1.98395,1.67116,5.85491,-2.68955,-6.76125,4.25795,0.72127,1.7936,2.80249,5.06537,1.22955,-4.03041,0.7389,3.59108,2.89961,-3.62105,1.98357,-1.17117,-2.77453,-6.12361,-3.53396,2.50223,-2.2626,4.07521,1.20516,0.03377,0.87664,0.13399,-0.15967,-1.20902,2.16166,0.24046,0.32952,-0.31936,0.32229,0.07314,0.22747,-0.68321,2.02395,0.38271,0.4916,-0.64822,-0.14145,-1.76421,0.20295,2.60265,0.32834,0.12311,1.55084,0.11891,-1.27562,-0.27591,2.13709,-0.76352,-0.08681,0.90913,-0.20285,0.09962,-0.15369,0.63277,0.10516,0.02182,-0.19495,0.16819,0.06237,0.11176,0.86604,-2.43505,-0.15056,-0.44873,0.01657,-0.10784,-1.32704,-1.54255,-2.64729,-2.57804,1.44163,6.47825,13.60378,-2.03423,-0.71742,0.71376,-5.821,0.82615,-2.34869,6.95418,-20.43521,2.90924,-24.10817,2.94852,1.56527,-13.72,-0.17083,-5.81326,7.79833,-1.74289,-1.03742,-0.88762,7.10999,0.58071,-11.73375,9.16676,0.99532,4.0568,4.20463,4.38702,3.55093,5.25325,-0.29852,-2.40741,6.76251,-1.65261,2.29223,-0.17203,5.13509,5.14935,0.19776,2.84703,-3.40695,6.45979,-14.57989,1.049,-0.48212,-0.31056,-0.28169,0.03148,-0.07816,-0.02545,-0.4408,0.03148,1.10638,-0.09934,-1.63939,2.02128,0.09701,0.44544,0.65096,0.6807,-0.29062,-2.60434,-0.20969,-0.21474,0.0519,4.33833,-0.02211,0.44153,-1.23171,-0.42542,-0.10631,0.36478,-5.69966,0.15087,0.40921,-1.59347,-1.01204,-0.24301,0.06298,-0.86102,-3.28828,-4.83823,-4.75985,-0.18949,0.25301,2.53889,-0.01254,0.18251,-0.16764,-0.26566,0.13623,0.97143,2.49711,0.88109,0.94933,6.43302,-5.82427,2.67739,0.33954,-0.68648,-7.60131,2.6098,0.5025,-3.83686,11.31142,-0.05121,3.55247,-0.16765,0.22522,3.68183,3.13035,2.60485,0.31611,-1.76668,-6.37451,2.28684,-4.90398,-0.77102,2.5575,3.16137,0.79642,0.83151,0.48597,0.32594,-0.41304,-2.18832,1.0755,2.88085,-1.62405,2.26407,-1.28482,0.57814,-3.33846,19.43843,-0.27372,-1.79855,0.15929,-3.6212,8.60401,5.58842,0.45197,0.16704,-6.41828,1.56614,-0.73721,0.17508,-0.71333,-0.25035,-0.74811,0.00872,3.60977,-1.80755,1.35331,0.3603,-1.62485,-0.67083,3.55103,1.5035,0.32971,0.22977,-2.89342,-6.8088,8.07934,-0.01268,0.61491,-0.03767,-2.87413,0.85767,-0.2608,5.10027,-0.25616,3.49933,-0.22081,-7.08374,0.63517,3.47036,-1.79177,6.08311,0.51149,0.32616,-0.41453,-0.15158,-0.42363,1.09111,0.46895,-0.50872,11.20695,-0.00141,-0.1942,-0.03509,-0.22064,0.07313,0.27936,-0.13898,0.04595,-0.03729,0.21426,0.27807,0.42838,-1.57451,3.26125,-0.0906,-0.09285,-1.07248,-0.12972,1.0491,-0.05454,-0.79523,-0.30827,-0.00987,0.3042,0.33538,-0.6172,0.98552,0.84318,0.03774,0.02022,-1.0245,0.01782,-0.25029,0.2415,-0.41353,-0.22472,0.42235,2.1945,-0.27297,-0.15217,-0.14389,0.04406,-1.92079,-0.1685,0.85728,-0.0641,0.35881,-1.46768,-1.59056,0.6046,-2.32081,3.00154,-3.06267,3.78404,-4.09102,-0.42869,0.30082,1.78043,-0.5111,13.39206,-3.31115,-9.78821,0.69049,-1.04665,5.83962,-0.48262,-17.27448,1.18385,-7.78444,2.29407,0.75715,10.08835,-0.25096,7.91728,-4.50859,-33.53126,1.776,0.35736,-3.61721,2.33703,2.51642,0.58649,-5.43469,-0.26205,3.22362,22.31426,-6.54244,3.26512,1.53409,3.50715,-8.17468,-1.85981,2.35404,-1.67,1.66258,-4.10388,0.60339,-8.53767,1.33432,1.05241,1.49926,-4.66265,2.03463,1.56707,-0.75126,-0.05624,3.16963,4.29567,-2.78176,-2.37247,-0.9273,15.29107,-0.02621,0.18773,4.55198,1.94711,-5.03124,1.4426,-0.58945,-24.08191,0.19562,-11.82521,-2.68526,28.00326,-5.88181,-0.1564,1.93827,-0.47111,-0.55642,0.8276,-2.52582,1.57179,-2.75755,0.31236,0.83594,1.41524,3.34165,-12.66787,2.18632,1.0759,-1.99448,2.54023,-5.18106,5.07348,-1.83789,-2.30373,-0.405,1.08774,-0.7364,1.86795,0.63672,0.10585,-0.71162,0.9514,0.24266,3.75426,0.2483,0.93182,-0.6945,-0.69035,-1.93053,0.32763,1.8451,0.48841,0.12512,-2.03644,0.11981,-7.23048,-0.05383,0.71306,-1.14287,3.65747,-2.54561,-0.14045,-0.34098,1.30846,-0.71532,-0.60305,0.41379,1.03943,0.26427,-3.47792,-0.00962,0.75006,0.79851,-6.39872,-1.39804,-0.47232,0.10885,-1.76927,-1.93282,0.56555,0.43379,-0.14788,-0.22538,-0.05228,-0.44703,1.23099,-0.12472,0.10765,0.06146,0.96392,0.23781,0.96342,-1.50759,-3.01636,0.47019,0.25567,0.10024,-0.26757,-3.61882,-0.00282,-1.39039,0.3948,-0.1066,-0.0749,0.19357,0.9481,0.03125,-0.65868,-1.91758,-0.21559,-0.76406,-0.5445,0.1221,-0.48638,-0.47725,-0.10444,0.76072,0.57644,-0.18625,0.13816,-0.07426,-0.07671,-1.62093,-0.55623,0.12723,-1.15292,-0.17865,-0.36547,-0.55315,0.58995,-0.19081,0.07233,-0.72928,-1.17429,-0.27935,0.25462,0.19423,-0.80105,0.3997,-10.64535,-2.67174,0.72592,0.45721,-0.63273,0.29887,-0.47356,-3.13944,-0.07598,-0.24668,0.92203,0.156,3.81104,0.2777,1.39767,-0.03305,-1.59006,1.1867,0.16522,-1.05399,0.61353,0.00661,0.2934,-1.16778,0.11005,1.19175,6.25775,-0.23454,0.15187,0.21505,-0.81959,0.96202,0.94322,0.23796,0.552,0.24281,3.82783,-0.17209,-0.13535,0.02712,-0.04578,0.11648,0.08479,-0.08165,-0.14464,-0.15026,-0.09486,0.15415,-0.08753,-0.01112,0.00317,-0.00451,-0.01867,-0.17808,0.03822,-0.12459,0.12455,0.13626,0.00859,-0.08898,-0.14886,-0.13399,0.05434,-0.09245,0.13332,-0.14794,-0.12142,0.02217,0.02425,-0.01189,0.01749,0.07451,0.12058,-0.07893,0.11504,-0.04897,0.03458,0.16626,0.04362,0.07259,-0.04082,0.08866,-0.02508,0.07169,-0.1845,-0.11621,-0.49346,-0.13195,-0.29227,0.2488,-1.60535,-0.75622,-0.10278,-0.3248,-0.12037,0.26525,-0.66917,-1.25495,-0.48567,0.35652,0.33089,0.20681,0.32558,-0.13986,-0.04916,-0.51264,-0.63969,-0.0773,-1.12552,-0.55799,0.67014,-0.20273,0.5849,-0.26404,-0.21297,0.01373,0.30691,-0.1028,-0.27862,0.2155,0.17383,0.7812,-2.68128,0.52398,-0.13564,-0.28126,-1.25545,-0.35643,-0.62523,-0.1734,-0.35206,-0.81523,-1.41504,1.16184,1.75357,-0.37122,0.40957,-2.34632,2.92941,-1.14302,-0.38869,-0.24751,-0.56434,-0.15174,-2.51881,-1.01496,2.03411,1.04004,-1.84216,0.23518,-1.05094,-1.67229,-0.48425,2.44768,-0.29114,3.79843,2.83354,0.4058,2.35683,0.4827,-3.95986,3.05982,0.42992,-1.22785,1.2388,2.37705,0.85835,1.56159,0.1691,2.14823,-6.01997,0.63888,1.0181,-0.73222,0.78157,-1.28607,-0.21824,1.50438,-0.88219,1.82744,-0.29993],"b":[-0.38667,-1.48791,-1.83755,3.55815,1.45671,6.76237,-2.81926,1.66999,-0.94922,-2.82139,0.84566,2.36951,-4.13293,7.13846,1.93999,0.04936,2.43282,-1.0745,-7.7444,1.93255,-2.39431,3.57145,0.93848,1.94719,1.71513,5.67205,-2.82118,-6.90121,4.43123,0.82072,1.78467,2.64208,4.94483,1.25976,-3.87504,0.71868,3.61018,2.76282,-3.5773,2.06341,-1.32948,-2.66443,-6.05833,-3.59633,2.44035,-2.08164,4.23446,1.11666]},{"W":[-5.30855,2.49856,3.11961,-1.24958,2.29402,3.04435,-0.74839,-0.48326,0.01784,-0.44684,-1.33445,0.35049,-0.01446,0.01305,0.15529,0.06162,0.2045,-1.14859,0.10793,-0.4004,0.49277,-3.05553,0.20531,2.82794,-0.39982,2.96243,-0.03589,-1.43681,-0.30559,1.5421,2.48499,0.27478,0.21836,0.36662,0.02594,0.1775,0.10337,-1.37809,0.13692,-5.32658,0.90947,-2.71326,-0.039,0.84343,0.31092,-0.22341,0.60121,-0.25615,-0.27158,-0.7481,-0.14575,0.04212,-0.12876,0.01261,-0.14399,-0.05295,-0.06802,1.32902,0.13615,0.17426,0.9475,2.65976,-1.21236,-0.00741,-4.84566,-0.14538,1.60856,0.34245,-0.17362,-0.70041,-0.4129,0.28281,0.04801,-0.03162,0.1232,0.10076,-0.20631,1.16012,0.09236,0.04752,-1.42709,1.30652,2.04001,1.25254,1.23184,-0.6424,-1.62681,2.1294,-0.51134,-0.37568,-2.84991,-0.3822,-0.08977,0.12051,0.11949,0.22489,-0.02841,-0.85842,-0.14284,0.31331,0.56751,6.41014,0.51107,1.55857,-0.41222,0.28068,-1.15821,-0.80129,0.56646,-0.47197,-1.44367,-0.00761,0.1322,0.11921,0.25532,0.15001,-0.15765,-1.05498,0.05029,-5.07251,-0.29946,-1.56266,-0.11135,0.77239,0.23411,-0.82161,-0.36863,-0.42077,-0.18936,0.33815,-0.21631,-0.21072,-0.34385,0.01643,0.06768,-0.05717,-0.11998,0.22664,0.11023,3.01336,0.86232,-1.47575,0.95314,-0.89993,-1.275,0.10257,-0.30214,0.45645,-0.01938,0.79481,0.1678,0.2945,-0.11817,-0.01329,-0.09366,-0.28778,-0.04601,-0.71297,0.24604,1.57357,0.16969,0.58282,-0.59894,1.80152,0.90967,-1.11934,-0.27888,-0.56777,0.14765,0.28876,-0.56971,0.15652,0.0457,0.26062,-0.06933,0.22681,0.16671,0.70081,0.1082,-1.39779,-0.13305,1.32097,0.27774,-4.0397,0.21414,0.04218,-0.42714,-0.79303,-0.71338,1.16755,1.3777,0.0964,-0.05206,-0.09265,-0.10657,-0.15659,0.03395,2.1052,-0.17463,-0.46625,0.03031,-1.1112,0.4066,0.27322,-0.77138,0.80838,0.26204,0.01552,-0.05582,-0.4504,0.49541,-0.0854,0.01457,-0.09404,-0.13594,-0.28973,-0.15653,-1.6169,-0.0011,2.42187,-0.38155,0.21999,-0.72934,1.02696,3.14666,-0.21448,-0.16726,-0.95795,-0.33099,1.36331,-3.45414,-1.17906,-0.52622,0.14669,-0.51929,-0.146,-0.07589,4.20058,-0.42966,-0.95761,0.89101,4.34034,-0.34861,0.47272,2.44331,-1.95852,-1.73792,2.23101,-0.1599,-0.43331,-1.28354,-0.13367,-0.0669,-0.01615,0.1479,0.20397,0.05498,-1.37334,-0.18264,-2.97937,-3.4202,-3.68135,1.25328,0.97923,-1.97762,2.74652,1.59382,-0.06699,0.1039,2.62825,2.57868,0.72695,0.30573,0.08081,0.02739,-0.02155,-0.05116,-4.2552,0.07805,0.3226,0.15001,-0.30203,0.75304,0.65355,-0.31837,0.61602,-1.22136,0.61678,0.03492,0.35828,0.50655,0.1339,0.12355,-0.01868,-0.03597,-0.15098,-0.13036,-1.06013,0.16687,-0.95604,-2.04688,-2.90522,-0.2937,-6.11622,-3.73945,2.94635,1.76235,-0.52166,0.33204,3.34363,2.67563,1.14414,0.27098,-0.09122,0.02719,-0.03563,0.17338,-2.87291,0.40974,6.5472,0.10265,2.62889,0.55199,1.39607,0.22112,0.11245,0.2444,-0.17093,-0.02796,-0.54947,-1.90757,0.2614,-0.4171,-0.06902,0.12649,-0.21142,-0.01296,-0.31726,0.0901,-1.62215,1.2956,-1.1474,-0.04236,1.15142,3.30581,-0.00758,-0.12812,-0.69767,-0.29191,-0.64883,-2.11739,-0.23769,0.05957,-0.20068,-0.08755,-0.0728,-0.08229,0.43668,-0.35025,-0.56013,-1.83772,-4.69091,-1.18613,-3.23206,-1.4162,0.93378,-0.58207,0.59751,0.20761,4.1695,1.85282,0.59841,-0.10245,-0.14181,-0.21353,-0.13473,-0.09599,-1.42535,-0.06331,6.21324,0.10687,-1.73334,0.12511,-0.87991,-0.94886,-0.74175,0.6739,0.1937,0.79689,-1.99997,0.05547,-0.07728,-0.05648,-0.17226,-0.15138,0.09461,-0.122,1.8538,-0.05945,2.89698,-1.06551,-0.854,-0.41648,2.95482,-1.27939,-0.286,-0.68764,-0.4255,0.22599,-0.04073,0.44726,1.09924,0.04031,-0.13148,-0.09682,0.07937,-0.03033,-0.8775,-0.44063,1.17624,1.2399,4.72473,0.49252,2.88671,-1.79935,-3.02536,-1.7452,1.84197,0.288,-2.24832,-1.82127,0.04413,0.29027,0.24802,0.08951,0.10342,0.19859,0.27361,0.4247,-2.0645,-3.1893,0.1906,0.0874,3.71162,-4.52375,-1.92428,0.48532,0.95005,-0.38215,1.6838,0.0214,0.13781,0.15106,-0.02803,0.1442,0.053,0.03116,0.82809,0.13666,2.05474,1.72965,1.02929,1.81382,-3.95518,4.47959,1.58422,1.38748,-0.96854,0.40646,-1.50919,-0.8608,-0.20943,0.14292,0.09732,-0.02681,-0.02891,-0.08524,0.90525,0.0345,-5.94792,0.00692,-2.88862,0.99788,0.2028,-0.83952,0.75101,0.31898,0.06854,0.2159,0.07168,0.58728,0.18893,0.09622,-0.04122,0.29225,0.0479,-0.11686,-1.27865,-0.06761,1.30504,1.47018,4.44043,-0.03704,-2.09468,0.43808,1.43494,1.16959,0.26315,-0.41204,1.34436,-1.0759,-0.6772,-0.07642,0.00683,0.08308,-0.18532,-0.09674,0.56396,0.19595,-6.43399,-0.63385,1.64963,-0.80176,2.05321,1.43398,-0.60518,-0.76843,-0.14544,0.10008,1.22066,-1.35172,-0.6632,0.05373,-0.10452,-0.25309,-0.05796,-0.17777,-0.78095,-0.35819,-1.05748,-0.32078,-0.1289,0.29176,-1.6152,-5.15476,-0.3251,-0.00925,0.6652,0.63434,-0.45751,0.69987,0.31091,0.11395,-0.1667,-0.17521,-0.16165,0.09473,-3.81091,1.20629,8.19236,0.07655,3.38895,-0.29687,2.83464,0.30826,-0.6924,-0.34683,-1.85402,0.19533,-0.95035,-0.71289,-0.17199,0.24773,0.07185,0.15467,0.23328,0.19794,-1.28332,0.02266,-1.46588,-0.12572,-0.38613,-5.43455,-1.26351,0.42028,3.80221,-0.13412,0.56783,-0.07749,0.78896,1.62868,0.18395,0.05311,-0.07568,0.07543,-0.06696,-0.17402,-0.54116,-0.04073,-0.05675,-0.21491,0.49104,2.50312,-2.0268,2.09594,-0.58343,-0.05505,2.91203,-0.08687,-1.35409,-0.78939,-0.27786,-0.01264,0.06177,-0.22686,0.04521,-0.17576,-3.98841,-0.08767,2.22335,0.86939,4.64491,0.64007,1.32973,0.32365,-1.04926,-1.62507,0.20644,0.48526,-0.5449,-0.56587,-0.0503,-0.00614,-0.06873,-0.13414,-0.2784,-0.32155,-1.23501,-0.63322,-1.66868,0.94956,1.91258,-0.89763,0.88796,2.60545,2.05192,-1.21722,-0.62448,0.08665,0.03296,-1.80123,0.21987,0.21808,-0.13995,0.24152,-0.05845,0.15533,-0.75061,0.29439,-4.183,0.13837,1.24577,-2.52802,-1.85326,1.3187,-0.58636,-0.05784,0.78785,-0.20407,-0.96169,-0.57651,0.04898,-0.19638,-0.08172,-0.06603,0.08104,-0.21574,0.65003,0.13234,1.94555,1.7304,5.3731,-0.53642,2.97492,-0.35329,-1.42308,-2.3032,-0.86297,-0.11243,0.58542,-0.61277,0.00847,0.04573,0.18309,-0.11238,-0.08316,-0.13054,-1.62717,-0.16731,-1.94653,0.11434,-2.34367,0.69879,-1.76108,-0.55161,0.679,0.92628,0.76659,-0.22383,0.50617,1.06762,0.0563,-0.18782,-0.10522,0.05567,-0.09789,-0.20791,-0.79411,0.16741,1.66069,0.92491,-4.7173,0.27104,-2.93909,1.15829,2.97753,0.52952,0.29504,0.35491,-0.01643,1.00851,-0.00775,0.02519,0.15814,0.09474,-0.09519,-0.04175,0.44713,0.02677,-0.68307,-0.18566,-0.10373,0.0598,2.63161,1.28614,-0.11529,0.17932,-0.35876,0.03525,-4.02579,-2.16407,-0.95816,-0.54949,0.04003,0.10388,-0.09953,-0.04481,4.71112,0.56575,-1.27846,-0.65329,-2.42638,-1.3669,-0.69248,2.2171,2.846,-0.16844,-0.76865,0.3275,-1.2411,1.71653,0.32263,-0.21027,0.07353,-0.11895,0.17688,0.22827,-2.7448,-0.17488,2.78278,1.54802,-0.85879,-2.78052,-1.05616,1.74484,-0.11171,0.55039,-0.10895,0.02587,-0.46396,-0.47189,0.33761,-0.07578,-0.1215,-0.14477,-0.1767,-0.18527,1.14217,0.0645,0.80934,-0.61677,-0.11421,-0.0334,1.05924,0.62054,-0.48281,0.23084,-0.56336,0.22573,-1.6275,-1.56806,-0.25268,-0.04284,0.30851,-0.08047,0.00023,0.07378,0.68133,-0.12637,1.99968,0.14539,2.44527,-0.99115,2.42832,0.5748,0.75074,-1.29848,0.42604,-0.13707,2.20991,0.97502,-0.22464,-0.15123,-0.03801,0.08392,0.15749,0.15184,-1.76472,0.07439,-5.69539,-0.42052,-1.97624,0.13695,13.30697,1.06921,-1.56662,-0.61341,-2.60383,-1.94829,-1.76954,-0.36166,-1.3911,-0.49385,0.16819,-0.54984,0.30227,0.25493,0.64997,-0.92103,-0.86315,-1.48524,0.85211,-0.73973,3.78607,0.71871,-1.39992,0.76252,-0.47593,-0.35048,-0.49165,-0.60923,-0.06002,-0.30281,0.00025,-0.08105,0.08814,-0.03893,-0.93425,-0.09564,1.08791,-0.22201,1.18486,0.6667,-1.57217,-0.15235,0.58129,-0.23638,0.58139,-0.13232,1.18331,0.42161,-0.14243,-0.11439,-0.0047,0.13431,0.07003,-0.14593,-0.70217,0.26866,-1.49012,-1.04819,0.77107,-0.47331,-0.18885,1.4347,-0.14831,1.43619,0.22949,-0.02138,-1.49821,-0.86779,-0.14384,0.01849,0.14038,0.0439,0.26024,0.06456,-1.23493,-0.09985,1.05171,0.4189,2.49192,-1.30981,0.66872,1.71889,-2.39379,-0.60433,0.61827,0.18109,2.57947,-0.418,-0.26461,0.43343,0.13657,0.31941,-0.06446,0.11923,-3.11744,0.07435,-2.00589,0.30505,-1.03145,2.38008,-1.54183,3.33451,-0.35378,-0.3313,0.80039,0.23219,-1.95548,-0.71609,0.34245,0.41142,-0.05205,0.0935,0.05638,0.02205,0.09295,-0.69557,-0.93013],"b":[-0.16662,-0.18801,0.56303,-1.33662,-0.91319,1.37658,0.56402,0.29026,-0.25749,-0.26994,0.76244,-0.02392,-0.31772,-0.44819,-0.22943,-0.30088,-0.34606,-0.82395,-0.16363,2.22932]}]};
